tree
version=v3
num_class=1
num_tree_per_iteration=1
label_index=0
max_feature_idx=19
objective=binary sigmoid:1
feature_names=ApplicantIncome CoapplicantIncome LoanAmount Loan_Amount_Term Credit_History Gender_Female Gender_Male Married_No Married_Yes Dependents_0 Dependents_1 Dependents_2 Dependents_3+ Education_Graduate Education_Not_Graduate Self_Employed_No Self_Employed_Yes Property_Area_Rural Property_Area_Semiurban Property_Area_Urban
feature_infos=[150:81000] [0:41667] [17:700] [12:480] [0:1] [0:1] [0:1] [0:1] [0:1] [0:1] [0:1] [0:1] [0:1] [0:1] [0:1] [0:1] [0:1] [0:1] [0:1] [0:1]
tree_sizes=1849 2092 2296 2093 1981 2093 1979 2101 2104 2098 2099 2205 2015 2092 1881 1996 2101 2003 2208 2223 2100 2094 2098 2228 2109 2112 2114 2317 2096 2322 2227 2108 2318 2108 2013 2309 2101 2217 2105 2227 2123 2420 2030 2125 2330 2430 2299 2312 2429 2310 2223 2334 2421 2224 2223 2110 2427 2332 2336 2330 2343 2221 2557 2237 2425 2218 2339 2336 2450 2113 2350 2221 2233 2241 2121 2228 2344 1907 2138 2128 2351 1922 2228 2123 2235 2340 2435 2127 2348 2235 2128 2135 2128 2337 2229 2335 2127 2460 2442 2348

Tree=0
num_leaves=17
num_cat=0
split_feature=4 2 1 0 18 17 1 1 0 3 2 0 2 2 1 0
split_gain=144.105 8.04569 6.79625 7.55452 8.7033 4.58941 4.38135 3.90366 1.88634 1.79989 1.52664 1.50278 1.27886 1.02317 1.26419 0.158249
threshold=1.0000000180025095e-35 232.00000000000003 1.0000000180025095e-35 4940.5000000000009 1.0000000180025095e-35 1.0000000180025095e-35 1847.0000000000002 2085.0000000000005 3361.5000000000005 330.00000000000006 84.500000000000014 7291.5000000000009 128.50000000000003 169.00000000000003 2416.5000000000005 3738.5000000000005
decision_type=8 8 2 2 2 2 2 2 2 8 10 2 10 10 2 2
left_child=12 2 3 4 10 9 -7 -3 -8 -4 -2 -5 -1 14 -11 -6
right_child=1 7 5 11 15 6 8 -9 -10 13 -12 -13 -14 -15 -16 -17
leaf_value=0.51412065068856261 0.71637852911637778 0.8499323550715866 0.87981219409885369 0.94660242251274473 0.90684633417114291 0.78519270384584128 0.95292725474890871 0.73788295871933507 0.86178943405066077 0.97443168435186589 0.79129718708797114 0.87981219409885369 0.57301566509666202 0.90684633417114291 0.91765999020005862 0.87981219409885369
leaf_weight=7.8207988440990448 4.6502047181129456 8.0321717858314496 4.2274588346481323 7.1866800189018232 4.4388317763805389 4.2274588346481314 4.6502047181129438 5.0729506015777579 4.4388317763805389 15.218851804733285 6.5525611937046051 6.3411882519721985 6.9753070771694183 4.4388317763805381 5.2843235433101645 4.2274588346481323
leaf_count=37 22 38 20 34 21 20 22 24 21 72 31 30 33 21 25 20
internal_value=0.830864 0.878913 0.891409 0.857654 0.81841 0.917942 0.869299 0.806558 0.908418 0.940149 0.760199 0.915295 0.541885 0.950376 0.9598 0.893659
internal_weight=0 88.988 75.8829 33.3969 19.8691 42.486 13.3165 13.1051 9.08904 29.1695 11.2028 13.5279 14.7961 24.942 20.5032 8.66629
internal_count=491 421 359 158 94 201 63 62 43 138 53 64 70 118 97 41
is_linear=0
shrinkage=1


Tree=1
num_leaves=19
num_cat=0
split_feature=4 18 2 2 2 6 2 2 2 8 2 8 1 9 2 2 0 1
split_gain=107.043 7.00257 6.4919 4.92844 4.66741 4.15572 3.54719 3.40948 4.5122 5.04634 1.75337 1.72998 1.66696 1.29473 1.06959 0.785485 0.564491 0.000517934
threshold=1.0000000180025095e-35 1.0000000180025095e-35 84.500000000000014 232.00000000000003 153.00000000000003 1.0000000180025095e-35 70.500000000000014 140.50000000000003 130.50000000000003 1.0000000180025095e-35 99.500000000000014 1.0000000180025095e-35 2251.5000000000005 1.0000000180025095e-35 169.00000000000003 128.50000000000003 4195.5000000000009 1628.5000000000002
decision_type=8 2 10 10 8 2 8 10 8 2 10 2 2 2 10 10 2 2
left_child=15 2 6 5 10 -4 -2 8 9 -7 11 -3 -6 -11 -9 -1 17 -12
right_child=1 4 3 -5 12 7 -8 14 -10 13 16 -13 -14 -15 -16 -17 -18 -19
leaf_value=-0.25567567027565263 0.0087663130313591058 0.024331525475772386 -0.029521939471616777 -0.042181894891291295 -0.0043108193999084271 -0.027247670414549809 -0.10891284947164551 0.14059537874733005 -0.052088005698600004 0.070176135841224341 0.1399029707120138 0.1152586497183926 0.074603270715287523 0.14054480899576377 0.081031200195719522 -0.21164211972699776 0.097088529001747637 0.13846137352259477
leaf_weight=8.6647125035524386 5.1260003298521015 4.3052939921617526 5.2267200499773017 6.4111052453517905 6.846987769007681 4.1426810920238539 5.1198036223649988 5.5340293049812299 4.133875921368598 5.5913075804710388 4.4810791164636594 4.071061298251152 4.3949969261884689 4.9114920645952225 6.6222470253705978 7.6081915050745001 4.6808542460203162 5.6151959002017975
leaf_count=37 24 21 25 30 33 20 24 27 20 27 22 20 21 24 32 33 23 28
internal_value=0 0.044292 0.0214261 0.0386248 0.079406 0.0529507 -0.0500377 0.0668848 0.0401748 0.0662172 0.105074 0.0685238 0.0265402 0.103083 0.108147 -0.235088 0.125793 0.139101
internal_weight=0 87.2147 52.8193 42.5735 34.3955 36.1624 10.2458 30.9356 18.7794 14.6455 23.1535 8.37636 11.242 10.5028 12.1563 16.2729 14.7771 10.0963
internal_count=491 421 253 205 168 175 48 150 91 71 114 41 54 51 59 70 73 50
is_linear=0
shrinkage=0.1


Tree=2
num_leaves=21
num_cat=0
split_feature=4 18 2 2 2 0 6 2 2 2 8 2 2 1 0 0 0 0 1 1
split_gain=83.2348 6.0612 5.29788 4.19482 4.09592 3.91966 3.46428 2.71177 1.91459 3.8471 5.57594 1.87837 1.64583 1.41014 0.603196 0.549973 0.483876 0.00715938 0.00594688 0.000340469
threshold=1.0000000180025095e-35 1.0000000180025095e-35 84.500000000000014 153.00000000000003 232.00000000000003 7446.0000000000009 1.0000000180025095e-35 70.500000000000014 140.50000000000003 126.50000000000001 1.0000000180025095e-35 163.00000000000003 99.500000000000014 2251.5000000000005 4300.5000000000009 4195.5000000000009 2968.0000000000005 2968.0000000000005 1697.5000000000002 1628.5000000000002
decision_type=8 2 10 8 10 2 2 8 10 8 2 8 10 2 2 2 2 2 2 2
left_child=14 2 7 12 5 6 -4 -2 9 10 -8 -10 17 -5 16 19 -1 -3 -12 -14
right_child=1 3 4 13 -6 -7 8 -9 11 -11 18 -13 15 -15 -16 -17 -18 -19 -20 -21
leaf_value=-0.19212774844265737 0.007917419363088157 0.060672313383961257 -0.040802370227242118 -0.0038724946151035646 -0.037341733169804839 0.13914913336831525 -0.032631677059608233 -0.094075933924938668 0.13518739193738916 -0.036220567520648166 0.11463912518518127 0.041589195171837345 0.13469667961877299 0.069377700517047197 -0.17640873169373958 0.091498174944650734 -0.23470396174842875 0.066612461686155977 0.10919411663605089 0.13348949625918996
leaf_weight=4.89813379943371 5.1089808791875813 3.9321876615285891 4.8687346875667599 6.8591142743825895 6.5121518224477759 4.2409327626228324 3.9849778115749404 5.3226100057363519 4.4196936637163136 5.6059883534908286 4.1956094354391098 4.1643120497465143 4.2031506448984128 4.2606023102998734 6.3193372040987006 4.4807045161724082 5.8661837428808212 4.192101389169693 3.8431291133165359 5.2601659297943115
leaf_count=20 24 20 23 33 30 21 19 24 23 27 21 21 22 21 26 23 24 21 20 28
internal_value=0 0.0408563 0.0196343 0.0742784 0.0355322 0.0489671 0.0366625 -0.0441236 0.0510503 0.0321922 0.0640893 0.0897806 0.0995149 0.0241939 -0.200933 0.12036 -0.21533 0.0637374 0.112036 0.134026
internal_weight=0 85.4551 52.2671 33.188 41.8355 35.3234 31.0824 10.4316 26.2137 17.6297 12.0237 8.58401 22.0683 11.1197 17.0837 13.944 10.7643 8.12429 8.03874 9.46332
internal_count=491 421 253 168 205 175 154 48 131 87 60 44 114 54 70 73 44 41 41 50
is_linear=0
shrinkage=0.1


Tree=3
num_leaves=19
num_cat=0
split_feature=4 18 2 2 2 0 6 2 0 0 2 17 2 1 2 0 0 1
split_gain=66.5038 5.23925 4.34046 3.77815 3.4125 3.53645 2.88477 2.38709 1.7268 3.22384 2.37414 2.21341 1.565 1.19243 0.608025 0.544747 0.00627212 0.000227397
threshold=1.0000000180025095e-35 1.0000000180025095e-35 84.500000000000014 153.00000000000003 232.00000000000003 7446.0000000000009 1.0000000180025095e-35 60.500000000000007 3248.0000000000005 2563.5000000000005 138.50000000000003 1.0000000180025095e-35 99.500000000000014 2251.5000000000005 128.50000000000003 4195.5000000000009 2968.0000000000005 1628.5000000000002
decision_type=8 2 10 8 10 2 2 10 2 2 8 2 10 2 10 2 2 2
left_child=14 2 7 12 5 6 -4 -2 9 -8 11 -10 16 -5 -1 17 -3 -14
right_child=1 3 4 13 -6 -7 8 -9 10 -11 -12 -13 15 -15 -16 -17 -18 -19
leaf_value=-0.19454996158671545 0.0054317466499904854 0.056280940046624185 -0.036124871539112195 -0.0034794325392138331 -0.033142226593509086 0.1340680678593868 0.016699294527740983 -0.089791205712345001 0.041488487300723707 0.13487082307897161 0.073784159816053491 -0.054554728178174298 0.13032685652700762 0.064508106612657032 -0.1571319215154659 0.086307154733838196 0.061923885928793977 0.12930555941921781
leaf_weight=9.2424104362726229 5.6290911436080915 3.8210686892271069 4.9449073523283031 6.8699809163808805 6.5986839979887 3.9751659482717505 4.2027637213468569 4.9455031305551529 5.0580790936946887 5.1222751289606094 6.6042615026235572 4.5653138309717178 3.924027666449545 4.1309400498867035 8.1916937679052335 4.2854820042848578 4.0653444081544876 4.9055657088756561
leaf_count=37 26 20 23 33 30 21 22 22 25 27 35 22 22 21 33 23 21 28
internal_value=0 0.0377317 0.0180312 0.0695248 0.0327411 0.0453523 0.0337888 -0.0391019 0.0473183 0.0816113 0.0276123 -0.00407418 0.0943926 0.0220505 -0.176968 0.115561 0.0591898 0.129759
internal_weight=0 83.6485 51.646 32.0024 41.0715 34.4728 30.4976 10.5746 25.5527 9.32504 16.2277 9.62339 21.0015 11.0009 17.4341 13.1151 7.88641 8.82959
internal_count=491 421 253 168 205 175 154 48 131 49 82 47 114 54 70 73 41 50
is_linear=0
shrinkage=0.1


Tree=4
num_leaves=18
num_cat=0
split_feature=4 18 2 2 0 1 0 0 0 2 2 2 1 2 0 0 1
split_gain=54.1026 4.53242 3.61377 3.40783 3.21045 4.94892 3.05374 1.94505 2.94671 1.5772 1.49803 1.08104 1.00751 0.548275 0.546053 0.00550839 0.000153907
threshold=1.0000000180025095e-35 1.0000000180025095e-35 302.00000000000006 153.00000000000003 9245.0000000000018 1022.0000000000001 4940.5000000000009 3531.0000000000005 2563.5000000000005 140.50000000000003 99.500000000000014 84.500000000000014 2251.5000000000005 128.50000000000003 4195.5000000000009 2968.0000000000005 1628.5000000000002
decision_type=8 2 8 8 2 2 2 2 2 10 10 8 2 10 2 2 2
left_child=13 2 4 10 5 6 11 8 -7 -9 15 -2 -5 -1 16 -3 -12
right_child=1 3 -4 12 -6 7 -8 9 -10 -11 14 -13 -14 -15 -16 -17 -18
leaf_value=-0.17587833538096342 -0.080567161072025106 0.052162554228365347 -0.05438377756209653 -0.003126806317413835 0.11323669297058701 0.025215032582727632 0.035469451882154994 -0.030878849496517292 0.11971267734174165 0.05793404420872858 0.12662324363428357 -0.021636639964062201 0.059950674493005521 -0.14037446206997073 0.081439626534952958 0.057527849089231003 0.12575177357146353
leaf_weight=9.2018797546625155 5.4889136403799066 3.7161251455545488 6.296677514910697 6.8797227889299375 3.8981727212667456 6.2381864041090029 6.9134811609983435 4.070009380578993 7.0057141482830048 3.9306692779064178 3.6490539461374265 7.1910100728273401 4.0071129202842712 8.2485123574733716 4.0973976701498023 3.9448649883270264 4.5576559901237488
leaf_count=37 24 20 28 33 20 32 36 20 38 21 22 34 21 33 23 21 28
internal_value=0 0.0348388 0.0165461 0.0650973 0.0265295 0.0182529 -0.0179958 0.0516843 0.0752021 0.0127542 0.0896395 -0.0471466 0.0200901 -0.159096 0.111254 0.0549253 0.126139
internal_weight=0 81.8848 51.0328 30.8519 44.7362 40.838 19.5934 21.2446 13.2439 8.00068 19.9651 12.6799 10.8868 17.4504 12.3041 7.66099 8.20671
internal_count=491 421 253 168 225 205 94 111 70 41 114 58 54 70 73 41 50
is_linear=0
shrinkage=0.1


Tree=5
num_leaves=19
num_cat=0
split_feature=4 7 17 2 0 1 2 1 0 2 1 2 10 1 2 0 1 2
split_gain=44.5595 4.23548 3.53463 4.53918 3.95912 7.2255 2.84929 1.65189 2.93321 2.30037 1.09103 1.56183 1.10829 0.678649 0.519879 0.35492 0.164967 0.0103098
threshold=1.0000000180025095e-35 1.0000000180025095e-35 1.0000000180025095e-35 232.00000000000003 5188.0000000000009 1933.5000000000002 187.50000000000003 1301.0000000000002 3618.5000000000005 113.50000000000001 1.0000000180025095e-35 125.50000000000001 1.0000000180025095e-35 2502.0000000000005 128.50000000000003 4300.5000000000009 2416.5000000000005 112.50000000000001
decision_type=8 2 2 8 2 2 8 2 2 10 2 8 2 2 10 2 2 10
left_child=14 2 3 10 5 -4 7 8 -3 -10 11 -2 15 -9 -1 16 17 -12
right_child=1 6 4 -5 -6 -7 -8 13 9 -11 12 -13 -14 -15 -16 -17 -18 -19
leaf_value=-0.16167036116847816 0.09368883986985288 -0.046925456737716309 -0.12378215853750033 -0.0031300238682486397 0.070997928815727571 0.06013920670161807 -0.064996710802181307 0.084360591453449332 -0.017910055475262299 0.079551359983373593 0.1313865849427569 0.0094722420791727366 0.049477353668764081 0.024530144980711044 -0.12689351930605039 0.085069748196413664 0.10118176268616115 0.12413836946273329
leaf_weight=9.0182667970657366 4.9645844101905832 7.6264293640852072 4.4329570680856687 7.3238743990659705 5.9608766585588446 4.1223683506250381 5.1722131520509711 3.9255554378032675 4.3949743062257749 5.3940474390983582 3.476873382925989 3.9575354158878335 3.7035483121871939 3.6666225045919418 8.2135273963212949 4.0917798727750769 3.471082791686058 4.5052434206008911
leaf_count=37 27 36 21 34 31 23 24 21 22 29 20 21 21 20 33 22 20 29
internal_value=0 0.0321505 0.0500037 0.0670052 0.00843229 -0.03516 0.00256608 0.0165398 -0.000429739 0.0357941 0.0852391 0.0563333 0.0986375 0.0554656 -0.145094 0.11035 0.119381 0.127296
internal_weight=0 80.1906 50.0107 35.4945 14.5162 8.55533 30.1798 25.0076 17.4155 9.78902 28.1706 8.92212 19.2485 7.59218 17.2318 15.545 11.4532 7.98212
internal_count=491 421 269 194 75 44 152 128 87 51 160 48 112 41 70 91 69 49
is_linear=0
shrinkage=0.1


Tree=6
num_leaves=18
num_cat=0
split_feature=4 18 2 2 0 1 0 0 0 2 2 2 2 0 2 0 1
split_gain=37.0323 3.61308 2.91844 2.70338 2.75063 3.55246 2.01528 1.67146 2.74072 1.40151 1.31292 1.06068 0.778819 0.569658 0.508501 0.0083585 0.00038699
threshold=1.0000000180025095e-35 1.0000000180025095e-35 153.00000000000003 302.00000000000006 9245.0000000000018 1022.0000000000001 4940.5000000000009 3531.0000000000005 2563.5000000000005 99.500000000000014 140.50000000000003 198.00000000000003 84.500000000000014 4195.5000000000009 128.50000000000003 2968.0000000000005 1575.5000000000002
decision_type=8 2 8 8 2 2 2 2 2 10 10 8 10 2 10 2 2
left_child=14 3 9 4 5 6 12 8 -7 15 -9 -4 -2 16 -1 -3 -11
right_child=1 2 11 -5 -6 7 -8 10 -10 13 -12 -13 -14 -15 -16 -17 -18
leaf_value=-0.15045326708039675 -0.066474249932355386 0.044551542770580974 -0.02064379658129396 -0.04727967389364135 0.1058806508319477 0.018597473531527488 0.029101698270908274 -0.031576510939252886 0.11283893526368652 0.12207519847328226 0.050684382035410917 0.043251645432468344 -0.017013007981078944 0.073212662760824693 -0.11568494710715449 0.051332994326035275 0.12058287221169435
leaf_weight=8.735821336507799 5.6495115906000155 3.5122256577014985 4.50931344926357 6.4119383096694937 3.6087705194950095 6.000124007463457 6.6580595672130576 4.0451760292053214 6.3535365462303162 2.9449746906757337 3.7286137789487839 6.1295686960220346 7.2932984977960587 3.7743378430604935 8.1133063435554487 3.766821101307869 4.2388167977333069
leaf_count=37 24 20 24 28 20 32 36 20 38 20 21 30 34 23 33 21 30
internal_value=0 0.0296555 0.0577928 0.0133237 0.0222903 0.0146972 -0.0156048 0.0442065 0.0670662 0.0820743 0.00787903 0.0161694 -0.0386027 0.104668 -0.133711 0.0480609 0.121195
internal_weight=0 78.6251 28.8761 49.749 43.3371 39.7283 19.6009 20.1275 12.3537 18.2372 7.77379 10.6389 12.9428 10.9581 16.8491 7.27905 7.18379
internal_count=491 421 168 253 225 205 94 111 70 114 41 54 58 73 70 41 50
is_linear=0
shrinkage=0.1


Tree=7
num_leaves=19
num_cat=0
split_feature=4 7 17 2 0 1 2 2 5 0 19 0 10 0 2 1 2 2
split_gain=30.977 3.45384 2.94553 3.88794 3.33214 5.21339 2.26997 2.32464 2.24118 1.84956 1.40656 0.64899 2.67796 2.07745 0.506778 0.197759 0.153444 0.016126
threshold=1.0000000180025095e-35 1.0000000180025095e-35 1.0000000180025095e-35 202.50000000000003 5188.0000000000009 1933.5000000000002 150.50000000000003 120.50000000000001 1.0000000180025095e-35 6408.5000000000009 1.0000000180025095e-35 4300.5000000000009 1.0000000180025095e-35 5188.0000000000009 128.50000000000003 2391.5000000000005 232.00000000000003 101.00000000000001
decision_type=8 2 2 8 2 2 8 8 2 2 2 2 2 2 10 2 8 10
left_child=14 2 3 11 5 -4 7 8 10 -5 -3 12 15 -13 -1 17 -8 -2
right_child=1 6 4 9 -6 -7 16 -9 -10 -11 -12 13 -14 -15 -16 -17 -18 -19
leaf_value=-0.14133355293128527 0.12831240686117151 0.0033311280593766573 -0.10547136559991853 -0.045874825714477784 0.065088913504101134 0.052026589213413521 -0.029553527473276171 0.075957391997330481 0.045359746718007445 0.048295524518525583 -0.073845911481165538 0.0021495091648161086 0.01544536167449587 0.096810897598639215 -0.10611652876951266 0.094150249413144094 -0.056390513308190865 0.11960469746336838
leaf_weight=8.3874324858188647 3.7871327996253985 5.2294663786888176 4.623187452554701 4.1736015230417234 5.68382903933525 3.8534971177577972 4.2457018494605991 5.2288034260272971 6.2954086810350409 4.1689699441194534 4.30584317445755 3.8019372522830945 3.4512744247913352 5.9413372129201889 7.9678625166416159 3.1494429856538764 4.2764369994401941 4.8508890420198441
leaf_count=37 23 28 21 20 31 23 23 30 33 20 19 21 20 34 33 20 19 36
internal_value=0 0.0273473 0.0440562 0.0602915 0.00584899 -0.0338729 0.000525649 0.0181474 -0.000946941 0.00118421 -0.0315196 0.08003 0.0929179 0.0598729 -0.124177 0.115601 -0.0430204 0.123422
internal_weight=0 77.0668 47.4851 33.3246 14.1605 8.47668 29.5817 21.0595 15.8307 8.34257 9.53531 24.982 15.2387 9.74327 16.3553 11.7875 8.52214 8.63802
internal_count=491 421 269 194 75 44 152 110 80 40 47 154 99 55 70 79 42 59
is_linear=0
shrinkage=0.1


Tree=8
num_leaves=19
num_cat=0
split_feature=4 7 17 2 0 0 0 17 0 1 1 2 10 0 0 2 1 0
split_gain=26.0454 2.94142 2.54134 3.49018 2.75888 4.19592 1.92839 3.76109 3.49801 2.19382 1.06068 1.41385 1.0334 0.522186 0.485628 0.412664 0.272186 0.00788597
threshold=1.0000000180025095e-35 1.0000000180025095e-35 1.0000000180025095e-35 232.00000000000003 5188.0000000000009 3248.0000000000005 4594.5000000000009 1.0000000180025095e-35 3618.5000000000005 1301.0000000000002 1.0000000180025095e-35 125.50000000000001 1.0000000180025095e-35 4300.5000000000009 2968.0000000000005 110.50000000000001 1718.0000000000002 3336.5000000000005
decision_type=8 2 2 8 2 2 2 2 2 2 2 8 2 2 2 10 2 2
left_child=13 2 3 10 5 -4 8 -8 9 -3 11 -2 15 14 -1 -12 -17 -18
right_child=1 6 4 -5 -6 -7 7 -9 -10 -11 12 -13 -14 -15 -16 16 17 -19
leaf_value=-0.10588644394636193 0.083031279802300295 -0.039930527943475902 0.042082631662742967 -0.0045401950521368525 0.060616731014620354 -0.098424951612670342 0.010717949982514715 -0.11213873667129004 0.085643353470012284 0.045653918559266773 0.074024348435738921 -0.0005715677247033694 0.039791657015469141 -0.092868945523368981 -0.15069154499012827 0.085848380816390735 0.12019904971482208 0.12707152550399917
leaf_weight=4.4410533457994443 4.4093157649040231 8.1880432814359718 4.1286869496107084 7.2586798518896094 5.5025628656148902 4.3800868391990662 7.0194099247455579 3.8632134646177292 5.6629163324832907 4.7225482463836661 3.9129425883293179 3.7374332100152978 3.4366202950477591 6.0357713103294381 5.3132209181785583 2.6950909867882711 3.4890806376934052 3.201893538236618
leaf_count=20 27 38 23 34 31 21 37 19 30 28 26 21 21 26 24 19 26 20
internal_value=0 0.0252205 0.0409779 0.0564712 0.00543728 -0.0302469 0.000531601 -0.0328948 0.0201169 -0.00862471 0.0742694 0.0446773 0.0886746 -0.115987 -0.130292 0.101306 0.11268 0.123488
internal_weight=0 75.6085 46.1524 32.1411 14.0113 8.50877 29.4561 10.8826 18.5735 12.9106 24.8824 8.14675 16.7356 15.79 9.75427 13.299 9.38607 6.69097
internal_count=491 421 269 194 75 44 152 56 96 66 160 48 112 70 44 91 65 46
is_linear=0
shrinkage=0.1


Tree=9
num_leaves=19
num_cat=0
split_feature=4 7 17 2 0 1 2 2 2 2 0 0 10 0 2 1 0 2
split_gain=21.9664 2.49196 2.19063 3.1107 2.28249 3.87917 1.73561 3.25437 1.7004 1.55284 1.52898 0.599915 2.5495 1.96095 0.560769 0.235177 0.1195 0.010203
threshold=1.0000000180025095e-35 1.0000000180025095e-35 1.0000000180025095e-35 202.50000000000003 5188.0000000000009 1933.5000000000002 72.500000000000014 84.500000000000014 150.50000000000003 120.50000000000001 6408.5000000000009 4300.5000000000009 1.0000000180025095e-35 5188.0000000000009 128.50000000000003 2391.5000000000005 3559.5000000000005 101.00000000000001
decision_type=8 2 2 8 2 2 8 10 10 10 2 2 2 2 10 2 2 10
left_child=14 2 3 11 5 -4 -3 -8 9 16 -5 12 15 -13 -1 17 -9 -2
right_child=1 6 4 10 -6 -7 7 8 -10 -11 -12 13 -14 -15 -16 -17 -18 -19
leaf_value=-0.12789343275228066 0.12318491762485005 0.053835067085165125 -0.086448492538434563 -0.041825460789261304 0.05639889554404566 0.049163541427497605 -0.093568133808667506 0.014155875079490491 -0.033119046103501054 0.071016817900985518 0.044057351699671066 -0.0045135549052708092 0.0092146803383620478 0.089985568757930817 -0.089466054575635584 0.084962724017093136 -0.010476046631831874 0.1157678346718039
leaf_weight=7.622408851981163 3.3494258224964195 5.0603172630071667 4.8069697767496091 4.2182239741086942 5.3318305611610404 3.7586117088794708 3.952645584940913 3.4358545094728488 7.2793415933847418 4.993790127336978 4.0760116875171661 3.6645591855049116 3.331073746085166 5.4791180342435837 7.5679564774036407 2.7651738449931145 4.6151828616857529 4.1557692885398865
leaf_count=37 23 24 21 20 31 23 18 20 36 30 20 21 20 34 33 20 24 36
internal_value=0 0.0232296 0.0380296 0.0528035 0.00503264 -0.0269414 0.000559964 -0.0105448 0.00560155 0.0272086 0.000379676 0.0719203 0.0852362 0.0521127 -0.108749 0.109893 3.58533e-05 0.119078
internal_weight=0 74.2739 44.9368 31.0394 13.8974 8.56558 29.3371 24.2768 20.3242 13.0448 8.29424 22.7451 13.6014 9.14368 15.1904 10.2704 8.05104 7.5052
internal_count=491 421 269 194 75 44 152 128 110 74 40 154 99 55 70 79 44 59
is_linear=0
shrinkage=0.1


Tree=10
num_leaves=19
num_cat=0
split_feature=4 18 0 3 2 2 2 0 9 0 1 2 1 2 0 2 2 2
split_gain=18.5857 2.23853 2.61373 2.48521 3.26774 1.91425 1.6457 2.76646 2.73672 4.24151 2.52585 1.53311 1.10116 0.888397 0.764212 0.650536 0.563032 0.00302336
threshold=1.0000000180025095e-35 1.0000000180025095e-35 2166.0000000000005 330.00000000000006 156.00000000000003 198.00000000000003 84.500000000000014 3248.0000000000005 1.0000000180025095e-35 5188.0000000000009 2085.0000000000005 133.50000000000003 1.0000000180025095e-35 132.50000000000003 3862.0000000000005 185.50000000000003 128.50000000000003 112.50000000000001
decision_type=8 2 2 8 8 10 10 2 2 2 2 10 2 10 2 10 10 10
left_child=16 2 -2 -3 12 -6 -4 11 9 -9 13 -8 14 -10 -5 -11 -1 -14
right_child=1 3 6 4 5 -7 7 8 10 15 -12 -13 17 -15 -16 -17 -18 -19
leaf_value=-0.12220671538775357 -0.06552022246703898 -0.041591869637356199 -0.021855087431487587 0.09604607880042107 -0.043542298036310045 0.051562636712361644 0.12482497759627496 -0.022024377092403659 0.03973975247518529 0.12478440469757886 -0.086805326166083635 0.028414697622116875 0.11919501209489146 -0.019203489278270269 0.032676023359821275 0.065956156633523555 -0.082880954318152247 0.11476778114753311
leaf_weight=7.2012210637331009 4.3303603976964942 2.9191564619541168 9.0716540068387967 3.391963824629789 3.9443963021039945 4.5666103661060333 3.8461965993046752 5.4671619534492493 4.6812707930803281 3.5514185652136803 3.9140710979700097 2.8877974227070808 2.5840132758021355 5.6351227462291718 4.3353295475244522 3.9934757798910141 7.3631840348243713 3.8269874006509781
leaf_count=37 23 18 40 22 22 23 26 29 23 23 20 18 20 30 28 21 33 35
internal_value=0 0.0214037 0.00853489 0.0452498 0.0564424 0.00748659 0.0159843 0.0260874 0.0119006 0.0450463 -0.0184072 0.0834805 0.0859129 0.00754319 0.0604929 0.0936469 -0.102325 0.116552
internal_weight=0 72.947 47.3785 25.5685 22.6493 8.51101 43.0482 33.9765 27.2425 13.0121 14.2305 6.73399 14.1383 10.3164 7.72729 7.54489 14.5644 6.411
internal_count=491 421 253 168 150 45 230 190 146 73 73 44 105 53 50 44 70 55
is_linear=0
shrinkage=0.1


Tree=11
num_leaves=20
num_cat=0
split_feature=4 17 2 2 2 2 9 0 2 0 1 10 1 1 0 0 2 18 0
split_gain=15.7584 2.06441 2.74446 4.52603 1.72334 3.03306 1.78766 2.31353 1.62007 1.66034 1.57411 1.43866 1.65104 1.10731 1.76502 1.10316 0.56597 0.239663 0.0291752
threshold=1.0000000180025095e-35 1.0000000180025095e-35 60.500000000000007 82.000000000000014 106.50000000000001 126.50000000000001 1.0000000180025095e-35 4875.0000000000009 137.50000000000003 3656.0000000000005 2416.5000000000005 1.0000000180025095e-35 1.0000000180025095e-35 2251.5000000000005 6174.5000000000009 4687.0000000000009 128.50000000000003 1.0000000180025095e-35 10093.000000000002
decision_type=8 2 8 10 8 10 2 2 10 2 2 2 2 2 2 2 10 2 2
left_child=16 2 -2 -4 -3 -6 -7 -8 10 -10 11 12 15 14 -11 -5 -1 -14 -16
right_child=1 4 3 8 5 6 7 -9 9 13 -12 -13 17 -15 18 -17 -18 -19 -20
leaf_value=-0.11719555871252255 0.11068708457528736 -0.060746910065212961 -0.047965009857658759 -0.0070882013611495466 0.077823659351595284 0.028423180453437974 0.009080194646325054 -0.098511215207321881 -0.039683429481751006 -0.042689608421105349 -0.0086460523932274398 0.13017550217139207 0.12286277574786492 0.081003670931523164 0.050564409665820279 0.068321719661046817 -0.076875536151212884 0.079997327330963264 0.038082653937946437
leaf_weight=6.7800598740577698 3.99218476563692 4.4908996820449856 7.290805719792842 4.336415030062204 4.6766486987471607 5.4654893577098829 3.9195884764194489 4.0778402984142303 4.0465635731816318 3.4131524190306646 2.9711483269929877 3.2377547174692145 2.3368116393685341 3.582300290465354 3.5850150212645531 3.5102437287569046 7.1555949300527573 2.952055312693119 3.9207082316279411
leaf_count=37 23 21 35 27 25 31 22 21 26 20 21 20 17 20 20 23 33 29 20
internal_value=0 0.0197083 0.0312108 0.0241886 -0.00528624 0.00844442 -0.015656 -0.04578 0.0380716 0.016955 0.0583186 0.0704702 0.0557536 0.03276 0.0169321 0.0266468 -0.0964923 0.0989368 0.0440444
internal_weight=0 71.8056 49.1752 45.183 22.6305 18.1396 13.4629 7.99743 37.8922 18.5477 19.3444 16.3733 13.1355 14.5012 10.9189 7.84666 13.9357 5.28887 7.50572
internal_count=491 421 301 278 120 99 74 43 243 106 137 116 96 80 60 50 70 46 40
is_linear=0
shrinkage=0.1


Tree=12
num_leaves=18
num_cat=0
split_feature=4 7 0 0 2 14 2 2 0 18 19 0 0 17 2 9 13
split_gain=13.3716 1.88566 1.84801 3.73586 1.73009 5.55411 2.90771 1.50538 2.74727 3.04436 1.23359 0.787945 2.60206 2.40552 0.568324 0.390767 0.185258
threshold=1.0000000180025095e-35 1.0000000180025095e-35 2663.5000000000005 3336.5000000000005 126.50000000000001 1.0000000180025095e-35 84.500000000000014 251.50000000000003 4620.5000000000009 1.0000000180025095e-35 1.0000000180025095e-35 4594.5000000000009 3756.0000000000005 1.0000000180025095e-35 128.50000000000003 1.0000000180025095e-35 1.0000000180025095e-35
decision_type=8 2 2 2 8 2 10 10 2 2 2 2 2 2 10 2 2
left_child=14 4 -3 -4 6 7 -2 8 9 -6 16 12 -5 -13 -1 -10 -8
right_child=1 2 3 11 5 -7 10 -9 15 -11 -12 13 -14 -15 -16 -17 -18
leaf_value=-0.1127074587949831 -0.0091143661418941618 -0.057279466224693799 0.08745620454572757 -0.038854183725126078 -0.037096783413640984 -0.087067560311080483 0.13209005323080367 -0.0063411718386358427 0.10878861815580193 0.088167405154568779 0.039602333811535877 0.0083641685024748967 0.076653914024000666 -0.088735867234854271 -0.071349985829243623 0.06415379876731428 0.098674470197358796
leaf_weight=6.3664918392896652 4.4693828746676436 4.9486494138836887 4.9220658391714123 4.2853260785341289 5.0791793391108602 4.3535485118627539 2.674001418054103 6.0755064189434043 5.2514547482132894 3.1393773555755615 3.6305365189909935 6.8494465649127942 3.579130657017231 4.0658345818519592 6.9497535526752472 3.1307621598243713 4.3714471086859694
leaf_count=37 26 27 27 21 29 24 19 30 34 26 27 37 21 19 33 19 35
internal_value=0 0.0180995 -0.00169752 0.00990732 0.031548 0.0163871 0.0586055 0.036249 0.051836 0.0107524 0.0869556 -0.0104178 0.0137138 -0.0278046 -0.091123 0.0921175 0.111357
internal_weight=0 70.8256 28.6505 23.7018 42.1752 27.0298 15.1454 22.6763 16.6008 8.21856 10.676 18.7797 7.86446 10.9153 13.3162 8.38222 7.04545
internal_count=491 421 152 125 269 162 107 138 108 55 81 98 42 56 70 53 54
is_linear=0
shrinkage=0.1


Tree=13
num_leaves=19
num_cat=0
split_feature=4 2 2 2 2 2 2 0 0 8 0 1 0 0 0 0 1 18
split_gain=11.3605 1.90009 4.67177 2.30299 2.03858 2.4079 1.77317 1.62207 2.55367 2.12164 1.61462 2.72902 2.16697 0.696412 0.579637 0.605197 0.411043 0.033609
threshold=1.0000000180025095e-35 60.500000000000007 84.500000000000014 132.50000000000003 138.50000000000003 158.50000000000003 172.50000000000003 4195.5000000000009 4729.0000000000009 1.0000000180025095e-35 5717.0000000000009 2048.0000000000005 9245.0000000000018 3336.5000000000005 4300.5000000000009 2968.0000000000005 2116.5000000000005 1.0000000180025095e-35
decision_type=8 8 10 10 10 10 10 2 2 2 2 2 2 2 2 2 2 2
left_child=14 -2 13 7 -5 -6 -7 9 -9 -4 -8 12 -12 -3 15 -1 17 -11
right_child=1 2 3 4 5 6 10 8 -10 16 11 -13 -14 -15 -16 -17 -18 -19
leaf_value=-0.072994283275845367 0.076710897449653481 -0.024116563600977713 0.027900073362688217 -0.055002626896172614 0.0747967496049598 -0.062811407286231122 0.066813973638772339 -0.048590822036224487 0.06223292090985845 0.12848808640372736 -0.027994595127734858 -0.071762109548391961 0.066542590985531377 -0.076123943076916736 -0.060093540805910187 -0.12962135396467581 0.069613507050618889 0.11235818704252327
leaf_weight=3.4877750277519226 4.8971694335341445 5.2437187284231168 6.5701333656907099 4.6000715717673293 5.7004822045564678 3.5542352721095112 4.4464322701096561 3.6947849392890912 4.755124419927597 2.866571381688118 4.25622510910034 4.0304968133568755 5.634367436170578 5.0586356520652771 5.1140937209129333 4.1129902303218842 2.1917366981506348 2.3514416217803955
leaf_count=20 28 24 39 27 39 21 26 21 32 20 23 20 31 24 26 24 21 25
internal_value=0 0.0166447 0.012116 0.02376 0.00663317 0.0168977 0.00184175 0.0483642 0.0137744 0.0692714 0.0143526 -0.00240375 0.0258603 -0.0496531 -0.0861231 -0.103637 0.105955 0.121219
internal_weight=0 69.8516 64.9545 54.6521 32.2223 27.6222 21.9218 22.4298 8.44991 13.9799 18.3675 13.9211 9.89059 10.3024 12.7149 7.60077 7.40975 5.21801
internal_count=491 421 393 345 187 160 121 158 53 105 100 74 54 48 70 44 66 45
is_linear=0
shrinkage=0.1


Tree=14
num_leaves=17
num_cat=0
split_feature=4 0 0 1 0 0 0 10 0 9 0 17 2 2 2 1
split_gain=9.65111 1.6444 1.65648 2.77177 2.77515 2.24606 2.50706 2.20283 1.50088 2.21289 3.69991 3.69889 1.59386 0.847454 0.61095 0.530066
threshold=1.0000000180025095e-35 2137.5000000000005 3336.5000000000005 1998.5000000000002 2663.5000000000005 3618.5000000000005 3862.0000000000005 1.0000000180025095e-35 4550.5000000000009 1.0000000180025095e-35 6408.5000000000009 1.0000000180025095e-35 144.50000000000003 84.500000000000014 128.50000000000003 2536.0000000000005
decision_type=8 2 2 2 2 2 2 2 2 2 2 2 8 10 10 2
left_child=14 -2 3 4 -3 -4 -7 8 -8 10 -10 12 -11 -6 -1 -5
right_child=1 2 5 15 13 6 7 -9 9 11 -12 -13 -14 -15 -16 -17
leaf_value=-0.10547880725942534 -0.035646454695244682 -0.061067574276863747 -0.053768168275000743 0.1226600890680391 0.01785927646649238 0.1007568261242144 0.066891924155998234 -0.042217709436737083 -0.012039272770431698 0.074025861959923486 0.11184749401641295 -0.078194473662299549 -0.0067939655940792562 0.090469836102654577 -0.060506051354259752 0.067292520331276612
leaf_weight=5.6360948383808136 5.8010374307632437 3.350921995937826 4.9010344445705405 3.5164536684751502 3.5185346379876137 3.3501017168164244 5.9152622148394611 6.5558393299579611 4.9062385633587837 3.8687546849250767 4.7393956035375595 5.5043370127677926 6.6079937517642984 2.9592421650886536 6.5094735026359558 3.4018229991197586
leaf_count=37 38 19 27 31 17 23 37 37 30 26 29 27 33 23 33 24
internal_value=0 0.0153045 0.0199889 0.0469442 0.0128123 0.0102493 0.0178191 0.010526 0.0214885 0.0110083 0.0488327 -0.0118212 0.0230504 0.05103 -0.0813755 0.095435
internal_weight=0 68.897 63.0959 16.747 9.8287 46.349 41.4479 38.0978 31.542 25.6267 9.64563 15.9811 10.4767 6.47778 12.1456 6.91828
internal_count=491 421 383 114 59 269 242 219 182 145 59 86 59 40 70 55
is_linear=0
shrinkage=0.1


Tree=15
num_leaves=18
num_cat=0
split_feature=4 2 2 2 2 2 16 0 1 0 1 1 0 0 8 2 0
split_gain=8.20305 1.74719 3.74027 1.79182 1.60041 2.01833 1.64188 3.0115 1.72501 4.41588 1.49626 1.53222 0.937168 3.04307 1.79368 0.603334 0.567246
threshold=1.0000000180025095e-35 60.500000000000007 84.500000000000014 132.50000000000003 138.50000000000003 158.50000000000003 1.0000000180025095e-35 11198.000000000002 3094.5000000000005 6174.5000000000009 2416.5000000000005 1718.0000000000002 4940.5000000000009 4195.5000000000009 1.0000000180025095e-35 128.50000000000003 3336.5000000000005
decision_type=8 8 10 10 10 10 2 2 2 2 2 2 2 2 2 10 2
left_child=15 -2 16 10 -5 -6 7 8 9 -7 11 12 13 14 -4 -1 -3
right_child=1 2 3 4 5 6 -8 -9 -10 -11 -12 -13 -14 -15 -16 -17 -18
leaf_value=-0.10192061085002631 0.072700569296672721 -0.022193320962081733 0.02186987363474658 -0.048657266912989286 0.069763835383846021 -0.08628929805045038 0.053531647124677645 -0.09170458784693869 0.058027130670404908 0.057688102821494204 -0.016377706946468347 0.11788586368639659 0.090514816818651991 -0.045792592208636684 0.11924014489613254 -0.056109369540747606 -0.068978174847802429
leaf_weight=5.2686464041471481 4.7291766852140418 5.262223616242407 4.3752010390162521 4.6694762557745007 5.3483705818653133 4.4567102715373093 4.6967037171125403 3.8007535412907592 4.6883788034319869 4.0808055698871613 3.5407503023743621 3.1648451387882224 3.033272221684455 3.7564783319830894 3.3331486135721207 6.3273781538009644 5.1063482463359833
leaf_count=37 28 24 26 27 39 25 25 20 27 24 26 30 22 22 32 33 24
internal_value=0 0.0140686 0.00968911 0.0204451 0.00540923 0.0147349 0.00118658 -0.0132525 0.00929243 -0.0174702 0.0429533 0.0548469 0.0410859 0.0280084 0.0639735 -0.0769237 -0.0452341
internal_weight=0 68.0426 63.3135 52.9449 31.7412 27.0717 21.7234 17.0266 13.2259 8.53752 21.2037 17.6629 14.4981 11.4648 7.70835 11.596 10.3686
internal_count=491 421 393 345 187 160 121 96 76 49 158 132 102 80 58 70 48
is_linear=0
shrinkage=0.1


Tree=16
num_leaves=19
num_cat=0
split_feature=4 0 17 1 2 2 0 2 0 2 2 1 0 1 1 19 2 2
split_gain=6.97295 1.5565 1.44124 1.75901 2.52392 1.98449 2.22642 2.15146 1.6574 1.53777 2.40494 1.33391 4.22323 1.228 2.60611 0.61239 0.595889 0.53136
threshold=1.0000000180025095e-35 2137.5000000000005 1.0000000180025095e-35 1.0000000180025095e-35 256.50000000000006 60.500000000000007 4940.5000000000009 156.00000000000003 3862.0000000000005 106.50000000000001 126.50000000000001 998.50000000000011 4195.5000000000009 1614.0000000000002 1998.5000000000002 1.0000000180025095e-35 130.50000000000003 128.50000000000003
decision_type=8 2 2 2 8 10 2 8 2 8 10 2 2 2 2 2 10 10
left_child=15 -2 3 5 13 -3 8 -8 -7 -4 -11 -12 -13 -5 -15 17 -16 -1
right_child=1 2 9 4 -6 6 7 -9 -10 10 11 12 -14 14 16 -17 -18 -19
leaf_value=-0.085822663342530803 -0.036838847156499592 0.084548686220940486 -0.060781807916961784 0.11991684858285481 -0.025732324182798957 -0.0040415028998597655 0.094972115490955508 -0.0012437193739488457 -0.087485068783697037 0.081382309462375291 0.028047194538848082 0.045342950037923935 -0.10417726689288845 -0.036895751490371706 0.043387118392671994 -0.10308495525546105 0.10200258449140576 -0.030025621532830574
leaf_weight=3.0400204733014107 5.741496503353118 3.1660685837268856 3.8823798969388035 3.7956490516662624 3.3108994811773291 6.9742219895124453 3.6115151047706577 6.519073799252511 3.6137549355626106 3.6033334285020855 5.1928182542324048 3.4043662920594215 4.2440459728240967 2.4365046173334104 2.6462195441126823 4.1452979892492294 5.0331844612956047 3.891529381275177
leaf_count=23 38 17 19 33 15 39 27 35 22 22 29 21 22 17 26 26 39 21
internal_value=0 0.0129534 0.0176068 0.0283775 0.052738 0.0108118 -0.000456142 0.0330568 -0.0325214 -0.00417454 0.00918981 -0.0110679 -0.0376247 0.0714137 0.0532145 -0.0726801 0.0818045 -0.0544969
internal_weight=0 67.1755 61.434 41.1071 17.2225 23.8846 20.7186 10.1306 10.588 20.3269 16.4446 12.8412 7.64841 13.9116 10.1159 11.0768 7.6794 6.93155
internal_count=491 421 383 270 130 140 123 62 61 113 94 72 43 115 82 70 65 44
is_linear=0
shrinkage=0.1


Tree=17
num_leaves=18
num_cat=0
split_feature=4 2 2 2 2 10 2 0 8 0 0 1 0 0 0 1 18
split_gain=5.92119 1.51076 2.94544 1.54614 1.42113 1.66301 2.43071 1.35977 1.93696 1.64834 1.24121 3.08926 0.619608 0.723791 0.519309 0.469744 0.0180235
threshold=1.0000000180025095e-35 60.500000000000007 84.500000000000014 132.50000000000003 138.50000000000003 1.0000000180025095e-35 158.50000000000003 4195.5000000000009 1.0000000180025095e-35 4940.5000000000009 9245.0000000000018 2590.5000000000005 4300.5000000000009 2968.0000000000005 3336.5000000000005 2167.5000000000005 1.0000000180025095e-35
decision_type=8 8 10 10 10 2 10 2 2 2 2 2 2 2 2 2 2
left_child=12 -2 14 7 -5 6 -6 8 -4 -9 11 -8 13 -1 -3 16 -10
right_child=1 2 3 4 5 -7 10 9 15 -11 -12 -13 -14 -15 -16 -17 -18
leaf_value=-0.052379743080839161 0.067755149494291816 -0.01858813475172422 0.020431049257188839 -0.047302787204569784 0.09668584958842788 -0.038273151609617535 -0.053460832631924471 -0.031676134254083513 0.12182131296882036 0.060843222301143418 0.049633067744166849 0.047883295646890624 -0.040238555400730791 -0.12125712585771418 -0.063192640170563794 0.053611745119626186 0.10914750371462545
leaf_weight=2.8526919782161713 4.5153610482811919 5.2933528721332532 6.2157080024480837 4.6530272439122227 3.8674023114144864 5.1677422747015944 6.7754655405879038 4.6315125226974478 2.4894224777817726 3.2961191311478615 5.2651664167642585 5.4091661795973778 4.4625540673732758 3.2797180637717247 5.1493127644062042 1.6370557248592374 2.0429084599018097
leaf_count=20 28 24 39 27 32 30 37 27 21 26 28 33 26 24 24 17 28
internal_value=0 0.0119131 0.00783924 0.0176672 0.00366592 0.0126204 0.0249581 0.0391301 0.0598301 0.0067912 0.00906102 -0.00847078 -0.0685872 -0.0892165 -0.0405828 0.099525 0.116109
internal_weight=0 66.4087 61.8934 51.4507 31.138 26.4849 21.3172 20.3127 12.3851 7.92763 17.4498 12.1846 10.595 6.13241 10.4427 6.16939 4.53233
internal_count=491 421 393 345 187 160 130 158 105 53 98 70 70 44 48 66 49
is_linear=0
shrinkage=0.1


Tree=18
num_leaves=20
num_cat=0
split_feature=4 0 17 1 2 2 0 2 3 2 0 1 2 2 0 2 1 0 0
split_gain=5.0222 1.51717 1.37556 1.46684 2.1489 1.64466 1.75378 1.84548 1.448 1.42713 1.22606 1.36117 3.12408 0.927558 0.661852 1.07916 0.276543 0.11056 0.00704827
threshold=1.0000000180025095e-35 2137.5000000000005 1.0000000180025095e-35 1.0000000180025095e-35 256.50000000000006 60.500000000000007 4940.5000000000009 156.00000000000003 330.00000000000006 110.50000000000001 3248.0000000000005 2085.0000000000005 135.50000000000003 169.00000000000003 5025.0000000000009 128.50000000000003 2416.5000000000005 3408.0000000000005 3248.0000000000005
decision_type=8 2 2 2 8 10 2 8 8 10 2 2 8 8 2 8 2 2 2
left_child=14 -2 3 5 8 -3 9 -8 -5 17 -4 12 -12 16 15 -1 18 -7 -10
right_child=1 2 10 4 -6 6 7 -9 13 -11 11 -13 -14 -15 -16 -17 -18 -19 -20
leaf_value=-0.085919563098757201 -0.038528960997319672 0.07936982388664561 0.042171957335340508 -0.0049397382475547084 -0.022410023247514524 0.011450063743964555 0.091148526861506929 -0.00019222227005533853 0.11167189073839777 -0.079005565151099175 -0.048528241795817176 -0.063944028882459966 0.058129360574933758 0.040503034383526655 -0.099844295719437814 -0.0053216441095172099 0.073545859765258889 -0.013485175210864578 0.11917557512299577
leaf_weight=3.3640280142426491 5.664490681141614 3.0123586133122471 4.1951547935605076 2.2780053354799747 3.3345569819211951 3.3434066548943537 3.3401605933904621 6.5489256381988534 2.2175714932382116 3.6033255979418755 5.9811229184269878 4.6696777567267409 5.0776348486542711 3.5049433782696733 3.5005951821804047 3.2820365726947784 2.2098419815301895 3.7982110008597374 2.8743207789957523
leaf_count=29 38 17 29 16 15 18 27 35 29 21 29 25 30 24 21 20 19 22 27
internal_value=0 0.0109413 0.0156125 0.0262908 0.0492529 0.0103467 0.000270028 0.0306592 0.0675157 -0.0276986 -0.00586108 -0.0186727 0.000443656 0.0827891 -0.0646534 -0.0461178 0.103087 -0.00181154 0.115908
internal_weight=0 65.6537 59.9892 40.0656 16.4192 23.6464 20.634 9.88909 13.0847 10.7449 19.9236 15.7284 11.0588 10.8067 10.1467 6.64606 7.30173 7.14162 5.09189
internal_count=491 421 383 270 130 140 123 62 115 61 113 84 59 99 70 49 75 40 56
is_linear=0
shrinkage=0.1


Tree=19
num_leaves=20
num_cat=0
split_feature=4 7 0 0 17 0 2 0 0 0 0 17 0 0 1 13 1 0 9
split_gain=4.2552 1.28398 1.32768 2.65281 1.22841 2.05164 1.85083 1.83293 1.34128 0.862493 2.66709 1.41091 0.674265 0.746398 0.522081 1.51585 1.03818 0.390875 0.00816931
threshold=1.0000000180025095e-35 1.0000000180025095e-35 2663.5000000000005 3336.5000000000005 1.0000000180025095e-35 5188.0000000000009 202.50000000000003 3248.0000000000005 6308.0000000000009 3671.0000000000005 4594.5000000000009 1.0000000180025095e-35 4300.5000000000009 2968.0000000000005 2416.5000000000005 1.0000000180025095e-35 1.0000000180025095e-35 5275.5000000000009 1.0000000180025095e-35
decision_type=8 2 2 2 2 2 8 2 2 2 2 2 2 2 2 2 2 2 2
left_child=12 4 -3 -4 6 7 14 -6 -8 -5 -11 -12 13 -1 15 -2 17 -17 -18
right_child=1 2 3 9 5 -7 8 -9 -10 10 11 -13 -14 -15 -16 16 18 -19 -20
leaf_value=-0.04515458255710901 0.0035779320783325174 -0.053580603544320954 0.074417763965425501 -0.059784435328258147 0.020602739676667963 0.047784495040534641 -0.046330837977978927 -0.078065544796161179 0.035927248514471363 0.063048595464611695 -0.00078014056615792124 -0.07613021539402709 -0.030380903508483756 -0.11842725153842032 0.021621804236024906 0.025348097553574079 0.11952768362675095 0.080028237153077275 0.11117043315464273
leaf_weight=2.6506187692284584 3.2775065079331442 4.9091814681887653 4.3017357140779522 3.2314067333936718 3.3001213259994966 4.7739761546254158 3.9785072505474082 4.3836085647344589 3.9506475031375885 4.3487300015985957 6.3757532685995084 4.0722343176603317 4.1592128053307533 2.9236761555075645 4.0636325180530539 2.756294883787632 2.6530506275594234 2.4868028238415718 2.0919329859316349
leaf_count=20 29 27 27 16 23 31 19 21 21 26 37 19 26 24 33 20 24 20 28
internal_value=0 0.0100492 -0.00649479 0.00385694 0.0219975 -0.00370014 0.0346718 -0.035688 -0.00534631 -0.0129798 -0.00275823 -0.0301488 -0.0608507 -0.0835856 0.0529825 0.0625892 0.0819532 0.0512829 0.115843
internal_weight=0 64.9551 27.239 22.3299 37.7161 12.4577 25.2584 7.68373 7.92915 18.0281 14.7967 10.448 9.73351 5.57429 17.3292 13.2656 9.98808 5.2431 4.74498
internal_count=491 421 152 125 269 75 194 44 40 98 82 56 70 44 154 121 92 40 52
is_linear=0
shrinkage=0.1


Tree=20
num_leaves=19
num_cat=0
split_feature=4 2 2 2 13 16 2 1 0 9 2 1 0 18 0 0 0 2
split_gain=3.60304 1.29382 2.66561 1.55435 2.03238 2.38356 2.16887 4.9196 3.20529 2.55717 2.2506 1.38957 1.15356 1.30613 0.9027 0.85531 0.67883 1.04378
threshold=1.0000000180025095e-35 60.500000000000007 84.500000000000014 132.50000000000003 1.0000000180025095e-35 1.0000000180025095e-35 256.50000000000006 3006.5000000000005 5145.0000000000009 1.0000000180025095e-35 149.00000000000003 2416.5000000000005 3559.5000000000005 1.0000000180025095e-35 4940.5000000000009 4195.5000000000009 5025.0000000000009 126.50000000000001
decision_type=8 8 8 8 2 2 10 2 2 2 10 2 2 2 2 2 2 10
left_child=16 -2 -3 11 -5 6 7 8 10 -10 -6 12 13 -4 15 -14 17 -1
right_child=1 2 3 4 5 -7 -8 -9 9 -11 -12 -13 14 -15 -16 -17 -18 -19
leaf_value=-0.07988070080593454 0.062537482357523308 -0.052224861653713962 0.12304000574871057 -0.060949656453029633 -0.011870493497138529 0.074019778457014462 -0.054310647661835479 0.12295964268180898 0.09816704106828654 -0.020901419387863301 -0.124852211765878 -0.022239051155366427 0.048040466748586801 0.024761807734445935 0.080223263372333542 -0.019029929468121643 -0.094170703428776259 0.0028660842153423881
leaf_weight=2.9807432517409325 4.2528650164604178 7.0667167007923117 3.4406332820653942 4.6800327673554412 4.4016820937395185 4.8522320017218581 6.1033691167831412 3.4019675031304351 3.4939038753509521 3.7285414561629295 2.9412626177072525 3.3951703757047644 3.4552198871970159 2.2279597632586956 2.5084870979189873 4.2278843149542809 3.2450910210609436 3.1201358214020729
leaf_count=29 28 34 32 25 30 29 29 25 24 21 18 26 26 27 22 25 21 20
internal_value=0 0.00923993 0.00545741 0.013169 0.000188157 0.0100809 -0.00280806 0.014687 -0.0106018 0.0366987 -0.057126 0.0358223 0.0482515 0.0844132 0.0281382 0.0111327 -0.0572176 -0.037562
internal_weight=0 64.1779 59.9251 52.8583 33.603 28.923 24.0707 17.9674 14.5654 7.22245 7.34294 19.2554 15.8602 5.66859 10.1916 7.6831 9.34597 6.10088
internal_count=491 421 393 359 201 176 147 118 93 45 48 158 132 59 73 51 70 49
is_linear=0
shrinkage=0.1


Tree=21
num_leaves=19
num_cat=0
split_feature=4 0 1 0 2 0 0 0 3 1 2 7 7 0 0 0 0 2
split_gain=3.05148 1.33058 1.07392 1.8921 1.07972 1.82002 1.76191 3.0864 3.16525 2.25814 2.00537 2.05057 1.80508 1.02138 0.914447 0.710734 0.832418 0.0203558
threshold=1.0000000180025095e-35 2137.5000000000005 3006.5000000000005 5717.0000000000009 158.50000000000003 6174.5000000000009 5025.0000000000009 4550.5000000000009 330.00000000000006 1614.0000000000002 75.500000000000014 1.0000000180025095e-35 1.0000000180025095e-35 3320.5000000000005 11198.000000000002 4300.5000000000009 2932.0000000000005 118.50000000000001
decision_type=8 2 2 2 10 2 2 2 8 2 10 2 2 2 2 2 2 10
left_child=15 -2 4 -4 6 -6 7 8 -3 10 -10 -12 -8 17 -7 16 -1 -11
right_child=1 2 3 -5 5 14 12 -9 9 13 11 -13 -14 -15 -16 -17 -18 -19
leaf_value=-0.035011242578102959 -0.037976005556002917 -0.071107174370655293 0.087054498537042002 -0.0087997225151600286 -0.061943611192663811 0.038274095905389278 0.12071031438775737 -0.059264401449651685 -0.040838107859756709 0.12689867019020079 0.10044247718454641 0.0043257498005810939 0.012731437427468571 0.032890724610110909 -0.024432745932219252 -0.021616425897880945 -0.11611251910349621 0.11238051750965311
leaf_weight=2.3686087727546692 5.6055210269987574 3.0845687687397003 4.8169818818569166 3.5971166640520096 5.3267426788806906 5.3703187853097898 3.0229316540062419 5.6956671178340903 4.3225781247019865 1.9574639871716493 3.6205930076539499 5.7362070456147194 3.1734195649623871 2.0850777849555016 4.1018192693591118 3.9036433473229408 2.7176186740398407 1.9062161482870577
leaf_count=19 38 18 36 19 29 33 26 30 21 18 34 34 21 18 22 26 25 24
internal_value=0 0.00854173 0.0130517 0.0460758 0.00742726 -0.015179 0.0170949 0.00655667 0.0230626 0.0378614 0.015494 0.0415179 0.0654097 0.0892961 0.0111195 -0.0537116 -0.0783444 0.119736
internal_weight=0 63.4232 57.8177 8.4141 49.4036 14.7989 34.6047 28.4084 22.7127 19.6281 13.6794 9.3568 6.19635 5.94876 9.47214 8.98987 5.08623 3.86368
internal_count=491 421 383 55 328 84 244 197 167 149 89 68 47 60 55 70 44 42
is_linear=0
shrinkage=0.1


Tree=22
num_leaves=19
num_cat=0
split_feature=4 2 0 2 2 0 0 2 14 16 0 1 0 2 2 0 2 2
split_gain=2.58123 1.208 2.13369 1.15492 1.0652 1.54662 2.29572 1.48261 1.4638 2.63985 1.94166 2.05392 2.5288 2.05385 1.22517 0.69878 1.27492 0.228359
threshold=1.0000000180025095e-35 60.500000000000007 2137.5000000000005 84.500000000000014 132.50000000000003 4195.5000000000009 4620.5000000000009 101.00000000000001 1.0000000180025095e-35 1.0000000180025095e-35 11198.000000000002 3006.5000000000005 5145.0000000000009 150.50000000000003 220.50000000000003 5025.0000000000009 128.50000000000003 113.50000000000001
decision_type=8 8 2 8 8 2 2 10 2 2 2 2 2 10 8 2 10 10
left_child=15 -2 -3 -4 5 7 -7 -5 9 10 11 12 13 -6 -14 16 -1 -9
right_child=1 2 3 4 8 6 -8 17 -10 -11 -12 -13 14 -15 -16 -17 -18 -19
leaf_value=-0.076661272784417034 0.060080403602247784 -0.063587330752215412 -0.029361515873566547 0.013926384221687786 -0.0012811498023460515 -0.07015611603744018 0.044901271801513432 0.075281445428669741 -0.048508342057430959 0.08540566072190009 -0.061499371105188841 0.073229508290902509 0.074200939193276014 -0.11040820694635507 -0.0091915406566356207 -0.089175915098250902 0.018447167361942442 0.1177712185861499
leaf_weight=2.8464721515774727 4.1416033133864394 4.3027124144136897 6.6818376928567877 3.3999602720141429 4.0889527127146845 2.7331615760922423 4.7445124201476574 2.2594596780836582 4.4886455982923499 4.2608658820390692 4.2290479391813269 4.4041671752929679 3.9575733467936516 2.9827435538172722 3.1751984655857086 3.0201451480388641 2.7917986214160919 2.8735082149505615
leaf_count=31 28 29 32 27 30 16 37 24 24 27 22 31 28 16 16 21 18 34
internal_value=0 0.00788693 0.004197 0.00957022 0.0150355 0.0360478 0.00284669 0.0651431 0.00438498 0.0131463 -0.000335237 0.0135651 -0.00493417 -0.0473094 0.0370782 -0.05036 -0.0295682 0.0990678
internal_weight=0 62.724 58.5823 54.2796 47.5978 16.0106 7.47767 8.53293 31.5872 27.0985 22.8377 18.6086 14.2045 7.0717 7.13277 8.65842 5.63827 5.13297
internal_count=491 421 393 364 332 138 53 85 194 170 143 121 90 46 44 70 49 58
is_linear=0
shrinkage=0.1


Tree=23
num_leaves=20
num_cat=0
split_feature=4 2 2 2 7 2 14 19 0 2 5 9 1 0 0 0 1 0 9
split_gain=2.18162 1.01655 1.75405 1.12666 1.09216 1.49726 2.22856 1.40401 0.867929 1.62488 1.13537 0.852677 3.06107 1.67001 1.09238 0.739761 0.912392 0.552612 0.151417
threshold=1.0000000180025095e-35 60.500000000000007 84.500000000000014 95.500000000000014 1.0000000180025095e-35 126.50000000000001 1.0000000180025095e-35 1.0000000180025095e-35 7291.5000000000009 115.50000000000001 1.0000000180025095e-35 1.0000000180025095e-35 2251.5000000000005 4701.0000000000009 10093.000000000002 4300.5000000000009 2147.5000000000005 3336.5000000000005 1.0000000180025095e-35
decision_type=8 8 10 10 2 10 2 2 2 8 2 2 2 2 2 2 2 2 2
left_child=15 -2 17 -4 5 7 11 18 9 -6 -11 13 -13 -7 -15 16 -1 -3 -5
right_child=1 2 3 4 8 6 -8 -9 -10 10 -12 12 -14 14 -16 -17 -18 -19 -20
leaf_value=-0.11302668111449324 0.055991784407856793 -0.010830444838887857 0.081860370873027888 0.11981888603586349 -0.049882388124893387 -0.019586233719295569 -0.062627395644064235 0.0029691600406063379 -0.053372776131821079 0.055137461634401724 -0.019340700727619557 -0.059901419444142401 0.0591727897928776 0.10093954468603655 0.018731988915528387 -0.013652947402264257 -0.024031174396272569 -0.057029183372669261 0.081146856850632332
leaf_weight=2.6002604588866234 4.0068592578172675 5.3053729981183988 2.2028197869658461 1.8047078363597417 4.2387812733650216 3.0286235027015245 3.7205821610987178 2.4897678308188915 3.8514640480279914 5.1970387771725655 3.3767061866819859 4.3471927605569363 4.2889200039207935 4.2381137311458588 2.6129910796880722 3.6822048425674438 2.0682810768485069 5.0572454333305359 2.3063807673752308
leaf_count=28 28 24 18 20 26 20 21 23 20 38 18 29 35 33 16 26 16 24 28
internal_value=0 0.00727564 0.00391401 0.0120146 0.00863317 0.0204104 0.00799564 0.0622323 -0.0117475 0.000765121 0.0258048 0.0221867 -0.000766045 0.0422502 0.0695858 -0.0471664 -0.0735994 -0.0333767 0.0981233
internal_weight=0 62.0736 58.0667 47.7041 45.5013 28.8373 22.2364 6.60086 16.664 12.8125 8.57374 18.5158 8.63611 9.87973 6.8511 8.35075 4.66854 10.3626 4.11109
internal_count=491 421 393 345 327 225 154 71 102 82 56 133 64 69 49 70 44 48 48
is_linear=0
shrinkage=0.1


Tree=24
num_leaves=19
num_cat=0
split_feature=4 17 1 1 6 1 0 2 2 0 2 0 2 2 19 0 2 0
split_gain=1.84153 1.03052 2.12962 2.11573 2.39863 2.06932 1.93715 1.54014 1.13748 1.27374 1.08034 1.27085 1.02559 0.814529 0.72034 0.277805 0.16425 0.13874
threshold=1.0000000180025095e-35 1.0000000180025095e-35 4317.0000000000009 1.0000000180025095e-35 1.0000000180025095e-35 1575.5000000000002 4369.0000000000009 163.00000000000003 106.50000000000001 6072.5000000000009 193.00000000000003 4940.5000000000009 113.50000000000001 132.50000000000003 1.0000000180025095e-35 2688.5000000000005 79.000000000000014 3590.5000000000005
decision_type=8 2 2 2 2 2 2 8 8 2 8 2 10 10 2 2 10 2
left_child=14 2 3 4 6 -5 -2 12 -3 13 11 16 -7 -10 17 -14 -6 -1
right_child=1 8 -4 5 10 7 -8 -9 9 -11 -12 -13 15 -15 -16 -17 -18 -19
leaf_value=-0.038088931922643281 0.0044125628685423848 -0.05950240345034228 -0.058687305841057816 0.11811654765587912 -0.0075142202694679144 0.014634659084702316 0.10691111475031562 -0.016432064540011324 0.053335979907639643 -0.040059145060574911 -0.05841893216540503 0.045167531789913951 0.062673121484173366 -0.0028523464269741873 -0.083515166326710924 0.11610193188748481 -0.038306965799755566 -0.0051637159786904708
leaf_weight=2.5320568680763245 4.0915206968784323 4.0157072171568897 3.5201772376894942 3.6074087191373101 2.8908752799034119 2.8604808598756764 3.3564741127192974 4.240368254482747 4.3305711969733256 5.3039891384541979 4.7008190900087365 3.8534116335213184 1.7051169425249102 6.3822173625230789 2.9455908387899399 2.2670566905289888 4.322044488042593 2.5877925977110863
leaf_count=24 24 21 23 38 15 27 20 25 29 32 23 33 18 38 26 27 28 20
internal_value=0 0.00670745 0.015714 0.0226253 0.00383558 0.0523386 0.050604 0.0309092 -0.011913 1.85863e-05 -0.0182566 -0.00119624 0.0602894 0.0198614 -0.0441151 0.0931668 -0.0259655 -0.0214471
internal_weight=0 61.4482 41.4158 37.8956 23.2151 14.6804 7.44799 11.073 20.0325 16.0168 15.7672 11.0663 6.83265 10.7128 8.06544 3.97217 7.21292 5.11985
internal_count=491 421 301 278 143 135 44 97 120 99 99 76 72 67 70 45 43 44
is_linear=0
shrinkage=0.1


Tree=25
num_leaves=19
num_cat=0
split_feature=4 0 17 2 2 1 0 0 9 5 2 0 1 2 18 0 2 0
split_gain=1.54713 1.06528 0.940113 1.78802 1.95151 1.82747 2.30178 1.34221 1.13581 1.35283 0.994104 0.785756 1.29584 2.66634 0.758778 0.73961 1.07095 0.190958
threshold=1.0000000180025095e-35 2137.5000000000005 1.0000000180025095e-35 277.00000000000006 137.50000000000003 1998.5000000000002 6174.5000000000009 3559.5000000000005 1.0000000180025095e-35 1.0000000180025095e-35 113.50000000000001 3248.0000000000005 2085.0000000000005 135.50000000000003 1.0000000180025095e-35 5025.0000000000009 128.50000000000003 4574.5000000000009
decision_type=8 2 2 10 8 2 2 2 2 2 10 2 2 8 2 2 10 2
left_child=15 -2 3 4 7 6 -6 8 -3 -10 14 -4 13 -13 -9 16 -1 -7
right_child=1 2 11 -5 5 17 -8 10 9 -11 -12 12 -14 -15 -16 -17 -18 -19
leaf_value=-0.067393829699665078 -0.035596260651108207 0.12535913225648393 0.033682627358564615 0.088980747774501448 -0.094294705445031879 0.053094212132062418 0.0038497632124086531 -0.044352116895122785 0.0017620456152054359 0.099694433035520946 0.049807647045633514 -0.045229973324529001 -0.063066318142758787 0.055801664073136276 0.024036909207051982 -0.082893900164167755 0.024686233050658049 0.013999340175497341
leaf_weight=2.3763078711926937 5.5471906736493102 2.237514294683935 3.6526838429272201 3.3784395903348914 4.3235105685889703 2.6108278408646575 5.3424469232559204 3.5836959928274137 3.4693121537566185 2.3770104516297579 4.0148658379912376 5.6906040981411907 4.4816710799932471 4.8286675587296495 2.9642603173851967 2.7443669736385345 2.6962829828262329 2.3959536030888557
leaf_count=31 38 23 29 16 25 24 33 20 33 17 38 29 25 30 25 21 18 16
internal_value=0 0.00618259 0.0103696 0.0196611 0.0126324 -0.01465 -0.0400495 0.0341004 0.0647688 0.0415796 0.0106296 -0.00790992 -0.0180376 0.00114664 -0.0133924 -0.0410746 -0.0184496 0.0343857
internal_weight=0 60.8987 55.3515 36.6978 33.3194 14.6727 9.66596 18.6467 8.08384 5.84632 10.5628 18.6536 15.0009 10.5193 6.54796 7.81696 5.07259 5.00678
internal_count=491 421 383 270 254 98 58 156 73 50 83 113 84 59 45 70 49 40
is_linear=0
shrinkage=0.1


Tree=26
num_leaves=19
num_cat=0
split_feature=4 10 19 18 3 0 2 2 2 2 5 7 2 0 0 0 0 2
split_gain=1.30167 0.949502 1.71134 1.2742 2.10422 2.65317 1.70175 1.2165 1.89221 2.47965 1.41664 5.56727 0.913063 0.767863 0.988056 0.534852 0.195284 0.0120975
threshold=1.0000000180025095e-35 1.0000000180025095e-35 1.0000000180025095e-35 1.0000000180025095e-35 330.00000000000006 4195.5000000000009 189.50000000000003 232.00000000000003 138.50000000000003 132.50000000000003 1.0000000180025095e-35 1.0000000180025095e-35 102.50000000000001 4300.5000000000009 2932.0000000000005 6072.5000000000009 2604.5000000000005 109.00000000000001
decision_type=8 2 2 2 10 2 10 8 10 8 2 2 10 2 2 2 2 10
left_child=13 3 -3 7 -5 16 -7 8 9 10 11 12 -2 14 -1 -10 -6 -18
right_child=1 2 -4 4 5 6 -8 -9 15 -11 -12 -13 -14 -15 -16 -17 17 -19
leaf_value=-0.01588185568948812 0.019310270206523233 -0.055623997642460343 0.026792752325797434 -0.05644972174405119 0.078349999893041408 -0.030364100460395317 0.067631195086999371 -0.034457983471709822 0.072397917389424277 -0.088020029475770034 0.06069176327722995 -0.077372686867580143 0.096140588687580464 -0.0031192430657440485 -0.11342539991248868 0.017199551433827166 0.12057569171080068 0.1087303782017508
leaf_weight=1.977445639669895 3.0238395053893417 6.1379489153623563 4.2736689411103725 2.1559698507189742 2.5608217772096378 4.339030634611845 2.9954393580555916 7.6567895635962477 4.9333053752779952 3.0944012179970732 4.0735046491026869 5.8611735850572586 3.1666744891554117 3.4120331257581711 2.1868766956031322 2.7250917479395866 1.7677609212696554 1.683084078133106
leaf_count=19 21 39 28 16 27 34 18 35 37 16 22 31 32 26 25 20 17 28
internal_value=0 0.00568093 -0.0217943 0.0113979 0.035216 0.0500239 0.00965774 0.000706393 0.0107237 -0.00602504 0.00970969 -0.0075224 0.0586118 -0.0382896 -0.0671064 0.0527567 0.0992723 0.114798
internal_weight=0 60.4485 10.4116 50.0369 15.5021 13.3461 7.33447 34.5348 26.878 19.2196 16.1252 12.0517 6.19051 7.57636 4.16432 7.6584 6.01167 3.45084
internal_count=491 421 67 354 140 124 52 214 179 122 106 84 53 70 44 57 72 45
is_linear=0
shrinkage=0.1


Tree=27
num_leaves=21
num_cat=0
split_feature=4 2 0 13 0 2 12 1 1 0 0 0 2 2 5 0 2 0 2 2
split_gain=1.09539 0.926793 1.60657 0.877322 2.29815 3.83427 2.29314 1.19129 2.71095 2.42859 2.19548 3.29285 2.34085 1.74122 1.64015 1.42354 0.869978 0.753868 0.954865 0.161334
threshold=1.0000000180025095e-35 60.500000000000007 2137.5000000000005 1.0000000180025095e-35 4701.0000000000009 91.500000000000014 1.0000000180025095e-35 2590.5000000000005 2085.0000000000005 5717.0000000000009 4729.0000000000009 4195.5000000000009 193.00000000000003 134.50000000000003 1.0000000180025095e-35 8333.5000000000018 128.50000000000003 5025.0000000000009 128.50000000000003 88.500000000000014
decision_type=8 8 2 2 2 10 2 2 2 2 2 2 10 8 2 2 10 2 10 10
left_child=17 -2 -3 4 5 -4 7 8 10 -9 11 13 15 14 19 -12 -7 18 -1 -5
right_child=1 2 3 6 -6 16 -8 9 -10 -11 12 -13 -14 -15 -16 -17 -18 -19 -20 -21
leaf_value=-0.061734942234175132 0.052902334014245628 -0.056925062373476304 -0.084144669890539467 -0.019511338845558765 -0.097103842783637331 0.096516977310358673 0.09930912773359106 0.095809086361940035 -0.084797045710253788 -0.019563939835689145 0.10940745776893929 -0.108253264962797 -0.0090081858927893096 -0.055706350267680498 0.096665328333623263 0.018844691461406424 0.013766820637698808 -0.079092670801979834 0.028191474422512852 0.016383437652417752
leaf_weight=2.1375809051096439 3.8233386613428584 4.2719567045569411 2.8651601970195753 2.3582317195832774 2.7654931657016268 2.8898897226899862 2.8981096483767024 4.0000352412462226 3.4752561040222636 3.3546247854828835 4.6322197206318361 3.173404447734355 5.8855133205652237 3.0939958468079576 2.658373299986124 2.7757368497550488 2.2672373987734318 2.5864390730857849 2.637948751449585 2.669755294919014
leaf_count=31 28 29 14 12 18 28 22 37 31 18 35 16 31 18 20 22 14 21 18 28
internal_value=0 0.00526611 0.00201583 0.00688017 -0.0184924 0.00860704 0.0135601 0.00703366 -0.00162059 0.0431849 0.00898818 -0.018718 0.0380705 0.00763841 0.0331366 0.0754739 0.0601374 -0.0356106 -0.0120606 -0.000451968
internal_weight=0 59.8583 56.035 51.763 10.7878 8.02229 40.9753 38.0771 30.7225 7.35466 27.2472 13.9538 13.2935 10.7804 7.68636 7.40796 5.15713 7.36197 4.77553 5.02799
internal_count=491 421 393 364 74 56 290 268 213 55 182 94 88 78 60 57 42 70 49 40
is_linear=0
shrinkage=0.1


Tree=28
num_leaves=19
num_cat=0
split_feature=3 0 0 0 15 0 2 0 2 0 0 10 0 0 2 0 7 2
split_gain=0.968625 1.33466 1.34812 0.828326 1.34517 1.84082 2.57634 2.34691 1.71838 1.70552 2.36896 1.57867 1.84061 6.65734 1.2185 1.18613 1.62284 0.97337
threshold=420.00000000000006 2059.0000000000005 2339.5000000000005 10916.500000000002 1.0000000180025095e-35 4729.0000000000009 243.00000000000003 6022.5000000000009 120.50000000000001 4550.5000000000009 2476.0000000000005 1.0000000180025095e-35 3618.5000000000005 3336.5000000000005 130.50000000000003 2853.0000000000005 1.0000000180025095e-35 185.50000000000003
decision_type=8 2 2 2 2 2 10 2 10 2 2 2 2 2 10 2 2 10
left_child=1 -1 -3 4 8 9 7 -7 -4 10 -6 12 13 15 -14 -12 -17 -10
right_child=-2 2 3 -5 5 6 -8 -9 17 -11 11 -13 14 -15 -16 16 -18 -19
leaf_value=-0.047900918822632671 -0.05105719080820046 0.079962791510085396 -0.086245709890841071 -0.029376004735657324 -0.10096574550162252 0.12454409625650814 -0.022881005202144408 0.023635109223468845 0.037354876715518466 -0.061537424417665409 0.11333148268818674 -0.036648577932369635 0.04069755404231009 -0.12096780689825085 0.12476679007594312 -0.019917647414283243 0.094435169896383231 -0.042872477901734096
leaf_weight=4.6543801426887503 3.4143438711762419 2.4751328639686099 3.0901148021221143 6.3772522658109656 1.7211951278150142 4.8066691420972329 3.670585185289382 4.4281211830675602 3.7330904752016068 3.6441755890846244 2.4588610958308035 3.9126433692872515 4.6913737189024678 2.9459609724581242 2.7257571499794722 2.9181202966719866 2.1593879051506519 2.5420880913734436
leaf_count=32 24 20 20 39 14 37 19 35 33 19 25 28 38 24 22 31 16 15
internal_value=0 0.00363092 0.00774492 0.004543 0.00891748 0.01689 0.0479889 0.0761578 -0.0252043 0.00212248 0.0119803 0.0208929 0.0334709 0.00649665 0.0715926 0.0563224 0.0287149 0.00485461
internal_weight=0 62.9549 58.3005 55.8254 49.4481 40.0829 12.9054 9.23479 9.36529 27.1775 23.5333 21.8121 17.8995 10.4823 7.41713 7.53637 5.07751 6.27518
internal_count=491 467 435 415 376 308 91 72 68 217 198 184 156 96 60 72 47 48
is_linear=0
shrinkage=0.1


Tree=29
num_leaves=21
num_cat=0
split_feature=4 7 0 0 0 2 17 2 1 1 0 2 2 2 2 0 10 1 18 2
split_gain=0.961865 0.791129 1.39692 1.17483 1.10388 1.81727 1.44959 1.65504 1.11818 0.962313 1.16991 1.59914 0.834875 0.716766 1.43303 0.715242 2.69223 0.432819 0.00686169 0.000282705
threshold=1.0000000180025095e-35 1.0000000180025095e-35 1877.5000000000002 6022.5000000000009 6408.5000000000009 259.50000000000006 1.0000000180025095e-35 202.50000000000003 1933.5000000000002 2147.5000000000005 3618.5000000000005 113.50000000000001 75.500000000000014 163.00000000000003 128.50000000000003 4300.5000000000009 1.0000000180025095e-35 2851.0000000000005 1.0000000180025095e-35 109.00000000000001
decision_type=8 2 2 2 2 10 2 8 2 2 2 8 8 8 10 2 2 2 2 10
left_child=13 4 -3 9 6 -6 7 15 -8 10 12 -12 -4 14 -1 16 17 18 -2 -20
right_child=1 2 3 -5 5 -7 8 -9 -10 -11 11 -13 -14 -15 -16 -17 -18 -19 19 -21
leaf_value=-0.066590931846890022 0.1168070752370787 -0.10132253676349448 0.014992034995676987 -0.040075117414867335 0.094844770590366834 0.00018081823208287572 -0.057619052697982412 -0.033977089274584281 0.016291957948552951 0.06478306260194748 -0.017173886039037498 0.080155534743645507 -0.050440053784954121 -0.078772047297025555 0.042725958644093731 0.0084597914099116996 -0.030084895116819544 0.048903548680687955 0.10979562471133647 0.10762132503586333
leaf_weight=2.3815500363707542 1.7466277852654473 1.5175213664770151 3.2080321162939116 6.137531764805316 4.0318989679217321 4.0800671577453613 5.2097941339015978 4.0233311727643004 3.3715217038989067 2.7741014994680873 3.3786005526781073 3.3737861514091492 4.972739353775979 2.3694783672690392 2.4153836816549301 4.6777181923389426 2.4433776624500751 1.4687536880373953 1.0740321669727566 1.3491710163652895
leaf_count=35 20 7 16 33 36 21 30 20 27 24 19 23 30 18 17 36 20 15 17 27
internal_value=0 0.00502878 -0.00829313 -0.00237259 0.0151217 0.0472317 0.00485238 0.0219467 -0.0285801 0.0106955 0.000647795 0.0314561 -0.0247813 -0.033774 -0.011547 0.0395804 0.0575925 0.0955859 0.112029 0.108585
internal_weight=0 58.8386 25.3623 23.8448 33.4763 8.11197 25.3643 16.783 8.58132 17.7073 14.9332 6.75239 8.18077 7.16641 4.79693 12.7597 8.08196 5.63858 4.16983 2.4232
internal_count=491 421 152 145 269 57 212 155 57 112 88 42 46 70 52 135 99 79 64 44
is_linear=0
shrinkage=0.1


Tree=30
num_leaves=20
num_cat=0
split_feature=4 2 2 0 0 1 12 2 2 0 2 1 19 1 2 17 9 0 1
split_gain=0.808788 0.803167 1.35125 0.810423 0.741114 0.952114 0.693736 1.09171 1.26561 1.28415 2.47327 3.7056 1.41811 1.17684 0.669481 0.517857 0.422654 0.291075 0.00750848
threshold=1.0000000180025095e-35 60.500000000000007 84.500000000000014 2059.0000000000005 4300.5000000000009 2209.5000000000005 1.0000000180025095e-35 95.500000000000014 101.00000000000001 4195.5000000000009 134.50000000000003 2209.5000000000005 1.0000000180025095e-35 2085.0000000000005 133.50000000000003 1.0000000180025095e-35 1.0000000180025095e-35 3656.0000000000005 1697.5000000000002
decision_type=8 8 8 2 2 2 2 10 10 2 8 2 2 2 8 2 2 2 2
left_child=4 -2 -3 -4 5 -1 7 -5 -9 10 17 -12 13 14 -11 -16 -14 18 -10
right_child=1 2 3 6 -6 -7 -8 8 9 12 11 -13 16 -15 15 -17 -18 -19 -20
leaf_value=-0.11011608667752755 0.049863856849943794 -0.040035975418771713 -0.038754100511193788 0.056571421706798297 0.0038375463419256604 -0.0093921553199503953 0.053264156822702559 -0.069430036042693377 0.11881592875395747 -0.040662432236631386 -0.082229219579396259 0.06695752022691652 0.05591660010956763 -0.066976340211542515 -0.010866116406606551 0.041315803977268056 0.0071979600907410221 0.058115459436634792 0.10843728884751845
leaf_weight=1.9454588145017626 3.682271495461463 6.8171345815062514 3.5012091398239127 4.0775345209985963 3.2211248278617859 1.8131088651716707 3.6054601520299903 2.3217583782970896 1.2465976960957026 3.8222417905926749 3.1346895471215257 3.5509926471859217 3.4365145973861209 4.400460571050643 4.6810617372393617 3.2032283768057823 3.6957780048251152 1.4668396636843679 1.5812504850327966
leaf_count=29 28 34 23 25 26 15 30 16 15 26 19 37 24 27 27 22 23 16 29
internal_value=0 0.00466176 0.00161009 0.00755882 -0.0313616 -0.0615275 0.0112254 0.00749389 0.00201749 0.00686511 0.0350472 -0.00299108 -0.00645068 -0.0228888 -0.00631636 0.0103343 0.0306718 0.0942626 0.113012
internal_weight=0 58.225 54.5428 47.7256 6.97969 3.75857 44.2244 40.6189 36.5414 34.2197 10.9804 6.68568 23.2393 16.107 11.7065 7.88429 7.13229 4.29469 2.82785
internal_count=491 421 393 359 70 44 336 306 281 265 116 56 149 102 75 49 47 60 44
is_linear=0
shrinkage=0.1


Tree=31
num_leaves=19
num_cat=0
split_feature=3 1 1 12 17 0 0 2 0 2 0 0 9 0 0 9 2 2
split_gain=0.726184 1.06112 1.09839 1.15425 1.13287 2.69386 2.27321 1.49824 2.20759 1.44149 0.934584 1.29371 1.42641 0.933667 2.1501 1.02775 1.31601 0.558635
threshold=420.00000000000006 2536.0000000000005 2251.5000000000005 1.0000000180025095e-35 1.0000000180025095e-35 3671.0000000000005 6022.5000000000009 132.50000000000003 4906.0000000000009 193.00000000000003 2635.0000000000005 5717.0000000000009 1.0000000180025095e-35 3862.0000000000005 4729.0000000000009 1.0000000180025095e-35 72.500000000000014 96.500000000000014
decision_type=8 2 2 2 2 2 2 8 2 10 2 2 2 2 2 2 10 10
left_child=1 2 3 4 7 -6 -7 13 -9 -10 -3 12 -12 15 -15 -1 -17 -18
right_child=-2 10 -4 -5 5 6 -8 8 9 -11 11 -13 -14 14 -16 16 17 -19
leaf_value=0.09855360618278397 -0.044257626669808009 -0.067534324502117243 0.073034946493591435 0.059518077007163411 -0.084226075215429505 0.051232497819363315 -0.057009900955510701 -0.067650545666430487 0.059746076564494946 -0.017617101249251324 -0.021597407000750295 -0.044488060443855011 0.088713297647703374 -0.060457086840238705 0.070020599684973414 0.088089753453753028 -0.039132963686599777 0.034921987979344829
leaf_weight=3.2739045266062039 3.3910821676254264 3.3841036073863497 2.6145716477185479 3.7564499657601109 4.6170375607907763 5.2252356186509115 3.0860859639942646 4.5932883396744719 4.2984679341316205 5.4777320101857185 2.4780276194214803 4.4845532327890396 2.2245222441852093 2.7256601825356475 2.3534139916300774 2.4369603358209133 2.1921488866209984 1.9028446115553377
leaf_count=35 24 23 30 33 32 30 20 28 32 30 18 25 26 21 25 17 14 28
internal_value=0 0.0032845 0.00998875 0.00640056 0.00167035 -0.0229813 0.0110409 0.0125646 -0.0104683 0.0163985 -0.0226093 -0.00606103 0.0305846 0.0347999 3.9075e-07 0.0528248 0.0299048 -0.00472142
internal_weight=0 61.125 48.5538 45.9392 42.1828 12.9284 8.31132 29.2544 14.3695 9.7762 12.5712 9.1871 4.70255 14.8849 5.07907 9.80586 6.53195 4.09499
internal_count=491 467 375 345 312 82 50 230 90 62 92 69 44 140 46 94 59 42
is_linear=0
shrinkage=0.1


Tree=32
num_leaves=21
num_cat=0
split_feature=4 2 0 0 3 0 1 2 0 0 1 1 0 1 2 2 18 19 0 2
split_gain=0.701194 0.717921 0.925858 1.05522 1.37481 2.31123 1.71159 2.17984 1.91249 1.65107 1.43371 1.53052 2.58116 1.60506 1.40928 0.872646 0.778361 0.711642 0.327861 0.127129
threshold=1.0000000180025095e-35 355.00000000000006 10916.500000000002 7974.0000000000009 330.00000000000006 3590.5000000000005 1628.5000000000002 185.50000000000003 4940.5000000000009 4550.5000000000009 2085.0000000000005 2955.0000000000005 3092.0000000000005 4453.5000000000009 66.500000000000014 134.50000000000003 1.0000000180025095e-35 1.0000000180025095e-35 4285.5000000000009 95.500000000000014
decision_type=8 10 2 2 8 2 2 8 2 2 2 2 2 2 8 10 2 2 2 10
left_child=17 2 3 4 5 -2 7 8 9 14 15 12 -12 -13 -6 -8 19 18 -1 -16
right_child=1 -3 -4 -5 6 -7 10 -9 -10 -11 11 13 -14 -15 16 -17 -18 -19 -20 -21
leaf_value=-0.031108598045845228 -0.10265343494338222 0.052792430625164144 -0.04743102243189453 0.056140865701353806 -0.059912149743172084 0.017153847889674296 0.12415062753230797 -0.08721887006394631 0.069275298253292913 -0.066478797755030405 0.048124232899716519 0.1020535709331977 -0.088289395012892929 -0.0052022081057343786 0.020225220129275898 0.039351847320685918 0.060951670220069212 -0.073377722007756635 0.023431496422863018 -0.0062670789549005776
leaf_weight=2.3713491447269917 3.166964266449213 2.9083736389875403 3.5696157887578002 3.7727718017995349 2.6343691796064457 3.2756348922848701 2.2590931113809374 3.0844411551952353 3.5913619026541701 4.0912491977214804 2.6409726422280055 2.9066767655313015 2.9214644972234964 2.6832129582762718 2.9127252697944641 2.6221201606094837 3.4416940622031689 2.3991653099656105 2.0593932569026947 4.7904305495321751
leaf_count=28 20 14 24 28 16 24 26 15 33 21 32 26 23 19 16 16 38 26 16 30
internal_value=0 0.00438674 0.00179716 0.00525666 0.00117404 -0.0417394 0.00798713 -0.0086113 0.00268598 -0.0106962 0.0333982 0.013615 -0.023522 0.0505695 0.00586643 0.0785979 0.0214149 -0.0295114 -0.00575856 0.00375022
internal_weight=0 57.2732 54.3648 50.7952 47.0224 6.4426 40.5798 24.5463 21.4618 17.8705 16.0335 11.1523 5.56244 5.58989 13.7792 4.88121 11.1448 6.82991 4.43074 7.70316
internal_count=491 421 407 383 355 44 311 169 154 121 142 100 55 45 100 42 84 70 44 46
is_linear=0
shrinkage=0.1


Tree=33
num_leaves=19
num_cat=0
split_feature=2 2 2 1 1 0 0 1 4 1 0 0 10 2 2 2 2 2
split_gain=0.618251 1.0066 1.32028 1.23737 1.47094 2.63629 2.32378 2.06445 1.49227 2.4811 1.17764 0.74126 2.72566 2.21802 0.970576 1.55815 0.601855 0.428513
threshold=60.500000000000007 84.500000000000014 98.500000000000014 5401.0000000000009 2085.0000000000005 3005.0000000000005 5717.0000000000009 1628.5000000000002 1.0000000180025095e-35 3006.5000000000005 3092.0000000000005 9245.0000000000018 1.0000000180025095e-35 185.50000000000003 138.50000000000003 131.50000000000003 113.50000000000001 262.50000000000006
decision_type=8 8 8 2 2 2 2 2 10 2 2 2 2 8 10 10 10 8
left_child=-1 -2 -3 4 5 -4 8 11 -6 10 -10 12 13 14 15 16 -7 -13
right_child=1 2 3 -5 6 7 -8 -9 9 -11 -12 17 -14 -15 -16 -17 -18 -19
leaf_value=0.040695861150011101 -0.03725362081082207 0.062021281225902641 -0.076642807270557348 0.058002193032807493 -0.078792067135353708 -0.02239119354505633 -0.10290341680136256 0.092279957050639183 0.027267866171117424 0.09174492135859208 -0.074025815863305588 0.0095925790689731592 0.076892075455705297 -0.088163141928985639 0.052136850086287469 -0.082138112108758349 0.035736448464730668 0.061075730034197896
leaf_weight=3.6564228646457186 7.0140104070305815 3.5438351910561314 3.4608713518828145 3.2962669283151618 2.2763167805969706 3.3180460939183956 3.5442667938768855 3.1386996284127227 2.0374378170818082 2.6243572644889355 2.6284218095242977 3.1733419075608245 3.4956081286072722 3.7270651683211318 2.7556190975010386 2.5554926469922066 3.8458620794117451 3.2958479896187782
leaf_count=30 39 34 34 22 22 28 20 28 26 26 19 25 24 19 23 16 37 19
internal_value=0 -0.00166414 0.00307102 -0.0011774 -0.00542944 0.00589714 -0.0337368 0.0156448 -0.00811148 0.013958 -0.029794 0.00645243 -0.00319311 -0.0204715 -0.000247823 -0.0150998 0.00881397 0.0358216
internal_weight=0 59.7314 52.7174 49.1735 45.8773 32.7665 13.1108 29.3056 9.56653 7.29022 4.66586 26.1669 19.6977 16.2021 12.475 9.7194 7.16391 6.46919
internal_count=491 461 422 388 366 253 113 219 93 71 45 191 147 123 104 81 65 44
is_linear=0
shrinkage=0.1


Tree=34
num_leaves=18
num_cat=0
split_feature=3 0 0 2 4 0 11 1 0 13 9 0 2 15 0 0 1
split_gain=0.623549 1.01983 0.950612 1.44644 1.01752 1.94743 0.656719 1.31674 0.985211 1.08076 0.907219 2.38865 1.80183 1.53111 1.09849 1.25617 0.598062
threshold=420.00000000000006 2059.0000000000005 2505.0000000000005 75.500000000000014 1.0000000180025095e-35 4300.5000000000009 1.0000000180025095e-35 1515.0000000000002 10916.500000000002 1.0000000180025095e-35 1.0000000180025095e-35 5145.0000000000009 243.00000000000003 1.0000000180025095e-35 4195.5000000000009 3618.5000000000005 520.50000000000011
decision_type=8 2 2 10 8 2 2 2 2 2 2 2 10 2 2 2 2
left_child=1 -1 3 -3 5 -4 8 -8 9 16 11 -11 13 -12 15 -15 -6
right_child=-2 2 4 -5 6 -7 7 -9 -10 10 12 -13 -14 14 -16 -17 -18
leaf_value=-0.042974185245475693 -0.041419338165752086 -0.006483506559118328 -0.11225684407085018 0.10203396822999811 -0.046429087672479323 0.012914157866067352 0.0016923308666237126 0.092308239094608252 -0.038472256162649834 0.0064486652837732446 -0.04207562316292348 0.12330885296267985 -0.067418091939648525 0.030089257244314861 0.0038281427037617452 0.12191141949495239 0.011359493371313058
leaf_weight=4.4422107227146617 3.3192353732883921 2.4108040519058695 2.1411363333463669 2.5041147824376822 4.6976580992341033 2.9630105271935463 4.2184662921354166 2.5869700629264116 5.1044803895056239 5.006536707282069 3.1485935226082846 2.6883274167776108 2.8025998473167411 3.9420783650129998 5.5387780889868736 2.3950890693813562 2.8942057769745588
leaf_count=32 24 14 29 31 29 23 34 23 29 34 23 25 13 39 38 25 26
internal_value=0 0.00311622 0.00683592 0.0488053 0.00272093 -0.0395938 0.00751795 0.0361384 0.00242159 0.00872535 0.0185785 0.0472757 0.00619175 0.0199225 0.0363597 0.0647928 -0.0243987
internal_weight=0 59.4851 55.0428 4.91492 50.1279 5.10415 45.0238 6.80544 38.2183 33.1139 25.522 7.69486 17.8271 15.0245 11.8759 6.33717 7.59186
internal_count=491 467 435 45 390 52 338 57 281 252 197 59 138 125 102 64 55
is_linear=0
shrinkage=0.1


Tree=35
num_leaves=21
num_cat=0
split_feature=1 1 1 12 0 0 0 0 0 0 17 2 0 3 2 2 0 0 0 1
split_gain=0.599096 1.66958 1.40773 1.08864 0.977981 2.35254 0.871707 4.30276 2.364 1.1432 3.2472 1.08021 0.937052 0.554926 1.26249 0.530504 0.444271 0.298876 0.211165 0.082606
threshold=2536.0000000000005 3006.5000000000005 2251.5000000000005 1.0000000180025095e-35 2339.5000000000005 2604.5000000000005 4783.5000000000009 5977.5000000000009 4550.5000000000009 3618.5000000000005 1.0000000180025095e-35 113.50000000000001 9245.0000000000018 330.00000000000006 208.50000000000003 185.50000000000003 3336.5000000000005 14633.000000000002 3073.5000000000005 4140.5000000000009
decision_type=2 2 2 2 2 2 2 2 2 2 2 8 2 10 10 8 2 2 2 2
left_child=2 -2 3 4 -1 -6 8 -8 9 10 16 -11 15 -3 19 -9 18 -14 -7 -15
right_child=1 13 -4 -5 5 6 7 12 -10 11 -12 -13 17 14 -16 -17 -18 -19 -20 -21
leaf_value=0.042686338522970851 -0.084999366468956603 -0.037480504672769969 0.076507005033163558 0.055257914738609026 -0.097837146546525242 0.017000633672626737 0.10639318978109372 -0.0070481739096193048 -0.085069800129608186 -0.0080251541361249148 -0.1151428017028229 0.07802781081676978 0.034726003405848582 0.07074841143383534 -0.027067123549242952 -0.063235833659314608 -0.01491161629830607 -0.008563694840253341 0.063306849950835062 0.041139417211725905
leaf_weight=4.2887808736413708 2.9149482715874901 2.7485808208584777 2.6630955860018721 3.5150277893990269 2.6908253245055667 2.1019684216007612 3.9886890091002014 3.049821022897957 3.9031907469034186 2.7985596526414147 2.56557996571064 3.0469500254839659 3.5411541275680065 1.8462377116084092 3.6156203076243401 3.7422842755913734 2.5381622612476349 2.9017316624522209 1.8528781197965143 1.9243663139641283
leaf_count=39 21 19 31 33 22 22 34 26 19 22 19 26 25 21 19 20 16 19 19 19
internal_value=0 -0.0183042 0.00579724 0.00174986 -0.00262307 -0.00764149 -0.000905593 0.0153479 -0.0157905 0.00235281 -0.0198951 0.0368296 -0.0120908 0.000878463 0.0151527 -0.0380062 0.0177401 0.0152293 0.0386955 0.0556372
internal_weight=0 13.0498 49.1887 46.5256 43.0106 38.7218 36.031 17.2237 18.8073 14.9041 9.05859 5.84551 13.235 10.1348 7.38622 6.79211 6.49301 6.44289 3.95485 3.7706
internal_count=491 99 392 361 328 289 267 124 143 124 76 48 90 78 59 46 57 44 41 40
is_linear=0
shrinkage=0.1


Tree=36
num_leaves=19
num_cat=0
split_feature=4 0 0 2 0 1 2 0 1 2 2 0 0 3 15 0 2 7
split_gain=0.56501 2.24774 1.83011 0.58606 0.884017 0.644393 1.15402 1.14281 1.11639 1.04719 1.11638 1.40222 1.54191 2.00236 1.09444 0.98048 2.12677 1.31535
threshold=1.0000000180025095e-35 5404.0000000000009 3590.5000000000005 60.500000000000007 2137.5000000000005 2590.5000000000005 302.00000000000006 4003.0000000000005 2085.0000000000005 208.50000000000003 158.50000000000003 4940.5000000000009 4550.5000000000009 330.00000000000006 1.0000000180025095e-35 2891.5000000000005 79.000000000000014 1.0000000180025095e-35
decision_type=8 2 2 8 2 2 8 2 2 10 10 2 2 10 2 2 10 2
left_child=1 2 -1 -2 -5 8 7 -7 9 10 11 12 13 -6 -13 -15 -17 -18
right_child=3 -3 -4 4 5 6 -8 -9 -10 -11 -12 14 -14 15 -16 16 17 -19
leaf_value=-0.0405873140291233 0.044089621366294574 -0.11567071932564146 0.087928227844823015 -0.042570084758532127 -0.070063625025113194 0.11343666897330072 -0.023540968180996949 0.020880230120288588 -0.052266602826651777 0.043420962998503794 -0.042458851668711634 0.00085985917318856856 -0.060543856886743998 0.080667384438245698 0.09494157340315007 -0.071563299096001343 0.0895689930987216 0.0036364067187122152
leaf_weight=2.7344119362533092 3.4240301288664332 1.9925015568733213 1.8630124460905788 4.2066529877483836 2.623144343495377 2.1536520831286881 2.6811218112707147 3.5052276365458965 3.7150347689166656 6.0043327361345282 5.6291052475571624 2.1903949044644833 4.0038882978260508 2.6023361217230567 2.8391435556113711 2.3394774645566923 2.9537707325071096 4.4872727021574974
leaf_count=37 28 18 15 29 15 30 12 26 39 34 38 19 22 24 27 11 38 29
internal_value=0 -0.0269571 0.011491 0.00401789 0.00137598 0.0052493 0.0305008 0.0561053 -9.74562e-05 0.00533553 -0.00237222 0.00701452 -0.0054083 0.00930293 0.0539684 0.0261157 0.0116009 0.0377479
internal_weight=0 6.58993 4.59742 55.3586 51.9346 47.7279 8.34 5.65888 39.3879 35.6729 29.6685 24.0394 19.0099 15.006 5.02954 12.3829 9.78052 7.44104
internal_count=491 70 52 421 393 364 68 56 296 257 223 185 139 117 46 102 78 67
is_linear=0
shrinkage=0.1


Tree=37
num_leaves=20
num_cat=0
split_feature=11 0 1 9 1 0 0 9 2 0 2 1 2 4 2 2 0 0 0
split_gain=0.547098 1.36658 1.08233 1.55026 1.46929 1.6962 1.3317 2.21022 1.50658 1.17417 1.71093 1.15514 0.933245 0.812643 0.911013 1.36793 0.653323 1.3084 0.219075
threshold=1.0000000180025095e-35 4620.5000000000009 2536.0000000000005 1.0000000180025095e-35 1.0000000180025095e-35 2783.5000000000005 2505.0000000000005 1.0000000180025095e-35 110.50000000000001 4940.5000000000009 122.50000000000001 1847.0000000000002 128.50000000000003 1.0000000180025095e-35 172.50000000000003 132.50000000000003 3505.0000000000005 4729.0000000000009 4337.5000000000009
decision_type=2 2 2 2 2 2 2 2 10 2 10 2 8 10 8 10 2 2 2
left_child=2 12 4 -4 5 -1 11 18 -9 10 -5 -6 -2 -7 15 16 -15 -18 -8
right_child=1 -3 3 9 6 13 7 8 -10 -11 -12 -13 -14 14 -16 -17 17 -19 -20
leaf_value=-0.078232038348165139 0.039306330164901954 0.064575446730040148 -0.088283143977069628 -0.0371785857758812 0.026338743160726083 -0.039903883447216598 0.044756761424507845 -0.090637405798698431 0.014418158564364203 -0.055236022400117081 0.083952966340328644 0.13841759757647334 -0.052816853688652958 0.052498596851756466 0.038816920458425261 -0.062988991603668096 -0.03245215112113254 0.053051567451608939 0.090619587075978197
leaf_weight=3.1283117756247547 1.8856075517833213 4.245040588080883 3.3099753782153112 2.2726028002798557 1.8301532715558999 4.2547771092504325 2.1160628944635373 2.3153645796701312 3.3259138083085418 2.9970335960388184 2.3947996906936169 1.8482524901628492 2.6382435373961926 2.7949668280780307 6.5763945356011382 3.2652633469551793 5.3133448883891088 2.6986336354166269 2.0510622318834066
leaf_count=19 25 34 21 17 19 32 24 17 39 16 30 21 19 20 38 21 35 26 18
internal_value=0 0.0238226 -0.00316127 -0.0310906 0.00422117 -0.00882742 0.031342 0.0120988 -0.0287001 -0.00639132 0.0249729 0.0826539 -0.0144186 -0.000108952 0.00809105 -0.00626814 0.0108698 -0.00365237 0.0673305
internal_weight=0 8.76889 52.4929 10.9744 41.5185 28.0317 13.4868 9.8084 5.64128 7.66444 4.6674 3.67841 4.52385 24.9034 20.6486 14.0722 10.8069 8.01198 4.16713
internal_count=491 78 413 84 329 191 138 98 56 63 47 40 44 172 140 102 81 61 42
is_linear=0
shrinkage=0.1


Tree=38
num_leaves=19
num_cat=0
split_feature=4 2 1 2 0 1 3 0 16 1 5 1 2 0 0 2 0 2
split_gain=0.499609 0.720365 1.38406 0.50873 0.727017 0.674829 0.843482 1.51892 1.572 1.46796 1.75835 1.18789 0.919407 1.68553 0.700721 1.54409 0.265062 3.9635e-07
threshold=1.0000000180025095e-35 163.00000000000003 1427.5000000000002 60.500000000000007 2137.5000000000005 4597.5000000000009 330.00000000000006 4195.5000000000009 1.0000000180025095e-35 1301.0000000000002 1.0000000180025095e-35 1427.5000000000002 134.50000000000003 7820.5000000000009 3399.5000000000005 158.50000000000003 3073.5000000000005 124.50000000000001
decision_type=8 8 2 8 2 2 8 2 2 2 2 2 8 2 2 8 2 10
left_child=1 2 -1 -2 -5 6 -6 9 11 10 -8 12 -9 -14 15 16 17 -11
right_child=3 -3 -4 4 5 -7 7 8 -10 14 -12 -13 13 -15 -16 -17 -18 -19
leaf_value=-0.065099487613055299 0.04172062332378508 -0.073474561292607696 0.048580271342670928 -0.038633674350337717 -0.035723848451677302 0.049823108997216606 -0.032458621293501681 -0.03908177316972325 0.042530324520212694 0.10890539757001474 0.058526849417362775 -0.060836597059445913 0.075122142511642065 -0.020018433218515201 0.11993321507849453 -0.040100351004110121 0.049002035585734016 0.10899610652593877
leaf_weight=1.9379877038300035 3.3234444987028828 2.1147966794669628 2.3940055370330811 4.1769651845097533 5.2936069704592228 3.1219373121857634 5.1651443429291231 5.0448500588536307 4.6929520405828944 1.0025445744395249 3.6075506564229727 5.5805000290274611 2.9705986753106126 4.9901847578585148 1.8462880598381159 1.4079139977693556 1.1939331628382204 0.92720495536923397
leaf_count=25 28 18 27 29 37 24 37 38 32 23 24 32 22 30 22 9 17 17
internal_value=0 -0.025632 -0.00227622 0.00381123 0.00134192 0.00490635 0.0016992 0.00685414 -0.00918445 0.0314977 0.00495687 -0.0222423 -0.00568212 0.0154837 0.0680042 0.046847 0.0860361 0.108949
internal_weight=0 6.44679 4.33199 54.3456 51.0222 46.8452 43.7233 38.4297 23.2791 15.1506 8.77269 18.5861 13.0056 7.96078 6.37788 4.5316 3.12368 1.92975
internal_count=491 70 52 421 393 364 340 303 154 149 61 122 90 52 88 66 57 40
is_linear=0
shrinkage=0.1


Tree=39
num_leaves=20
num_cat=0
split_feature=11 0 1 9 1 0 0 2 9 2 2 1 18 2 4 2 2 2 2
split_gain=0.457024 1.15512 0.828187 1.27707 1.12895 1.44928 1.20894 2.72805 1.85602 1.33212 1.19809 1.06815 1.05215 0.827126 0.640809 0.742952 1.17438 0.60156 0.503737
threshold=1.0000000180025095e-35 4620.5000000000009 2536.0000000000005 1.0000000180025095e-35 1.0000000180025095e-35 2783.5000000000005 2505.0000000000005 99.500000000000014 1.0000000180025095e-35 156.00000000000003 110.50000000000001 2048.0000000000005 1.0000000180025095e-35 128.50000000000003 1.0000000180025095e-35 172.50000000000003 132.50000000000003 84.500000000000014 111.50000000000001
decision_type=2 2 2 2 2 2 2 10 2 10 8 2 2 8 10 8 10 10 10
left_child=2 13 4 -4 5 -1 7 -6 9 -8 -10 -12 -5 -2 -7 16 17 -16 -19
right_child=1 -3 3 12 6 14 8 -9 10 -11 11 -13 -14 -15 15 -17 -18 18 -20
leaf_value=-0.072435473236708542 0.038175193768050397 0.060685232917465463 -0.079169941934775653 -0.030740743658460593 0.16394244264489533 -0.035655508568762893 0.0038145680995425959 -0.01188676546672714 -0.092364761110473689 0.11808567443143958 0.06179288393958976 -0.046655118197832947 0.048661431147311356 -0.049101960766837371 -0.014536640804437321 0.035568089477454205 -0.057735242784349931 0.066202858760077019 0.0062458645854774732
leaf_weight=3.0825722664594677 1.8536670710891465 4.0658323038369417 3.3119053281843644 5.093884713947773 1.8017469570040696 4.1240790244191947 2.0522579662501794 1.729375349357724 1.9098976999521253 2.0285304933786392 1.7478267429396512 1.8906419444829223 2.4819729272276163 2.6214730590581894 5.0303586460649949 6.4719229713082305 3.2825429998338214 2.5277358535677195 3.1444272119551897
leaf_count=19 25 34 21 39 16 32 27 24 15 15 20 21 24 19 30 38 21 21 30
internal_value=0 0.0221029 -0.00286654 -0.0273717 0.00366901 -0.00780084 0.0277793 0.0778297 0.0094252 0.0606179 -0.0282267 0.00544051 -0.00472731 -0.0129505 0.00030462 0.00755409 -0.00541005 0.0106385 0.032965
internal_weight=0 8.54097 51.7117 10.8878 40.8239 27.6636 13.1603 3.53112 9.62915 4.08079 5.54837 3.63847 7.57586 4.47514 24.5811 20.457 13.9851 10.7025 5.67216
internal_count=491 78 413 84 329 191 138 40 98 42 56 41 63 44 172 140 102 81 51
is_linear=0
shrinkage=0.1


Tree=40
num_leaves=19
num_cat=0
split_feature=4 19 5 0 0 1 2 13 0 2 9 18 2 2 0 1 0 1
split_gain=0.422593 0.679509 0.501577 1.0379 0.97867 1.39994 1.04815 1.04293 3.15479 2.19363 1.34731 0.891634 0.877436 1.55886 0.86047 0.612512 0.412588 0.210181
threshold=1.0000000180025095e-35 1.0000000180025095e-35 1.0000000180025095e-35 2166.0000000000005 10916.500000000002 1998.5000000000002 243.00000000000003 1.0000000180025095e-35 4701.0000000000009 118.50000000000001 1.0000000180025095e-35 1.0000000180025095e-35 112.50000000000001 137.50000000000003 3092.0000000000005 3006.5000000000005 4369.0000000000009 2779.0000000000005
decision_type=8 2 2 2 2 2 8 2 2 10 2 2 8 10 2 2 2 2
left_child=1 16 3 -2 5 6 7 9 10 -5 -9 -10 -4 -14 17 -16 -1 -7
right_child=2 -3 12 4 -6 14 -8 8 11 -11 -12 -13 13 -15 15 -17 -18 -19
leaf_value=-0.028687090973756352 -0.049529450965205793 -0.069669202711928876 -0.0080409193251891921 0.032174833537690364 -0.037604189699312798 0.11649371421614313 -0.064890417494930075 0.026506248429862059 0.11734034391617254 -0.083139229615994126 -0.054801244723420808 0.033825185740064281 0.10328817840067431 0.0002778608878050279 -0.0074901697675892531 0.047335671779814743 0.034577775873681715 0.059350607798159573
leaf_weight=2.2984127085655928 4.0466176532208911 2.1369226388633251 5.0225051864981625 3.1022591153159746 4.9904070645570746 1.3732379814609879 2.5364584550261489 3.6401986470446008 2.8964148946106443 3.523179404437542 4.6303786793723702 2.2883661761879921 2.7792814951390037 3.116292042657733 3.5888638012111169 4.7146336231380701 1.8691596835851667 1.2115738932043312
leaf_count=29 30 26 36 23 30 25 14 30 33 23 33 21 23 20 25 38 15 17
internal_value=0 -0.0238213 0.00355303 -0.00135394 0.00371018 0.00986365 -0.00431898 0.00333196 0.0193238 -0.0291452 -0.0190147 0.0804799 0.0226732 0.0488388 0.0393239 0.0236393 -0.000312746 0.0897091
internal_weight=0 6.3045 53.4607 42.5426 38.496 33.5056 22.6173 20.0808 13.4554 6.62544 8.27058 5.18478 10.9181 5.89557 10.8883 8.3035 4.16757 2.58481
internal_count=491 70 421 342 312 282 177 163 117 46 63 54 79 43 105 63 44 42
is_linear=0
shrinkage=0.1


Tree=41
num_leaves=22
num_cat=0
split_feature=10 1 2 2 1 12 4 0 0 1 0 0 0 2 0 2 0 0 0 2 2
split_gain=0.423658 1.29406 0.999515 0.908142 1.40923 1.42629 1.24767 1.0622 1.02443 1.98688 1.25742 1.03965 1.8414 1.56189 1.71261 0.824598 0.779304 0.442217 0.211831 0.0730191 4.29376e-05
threshold=1.0000000180025095e-35 2416.5000000000005 46.500000000000007 95.500000000000014 5401.0000000000009 1.0000000180025095e-35 1.0000000180025095e-35 4574.5000000000009 3248.0000000000005 1847.0000000000002 9245.0000000000018 5717.0000000000009 3618.5000000000005 113.50000000000001 4594.5000000000009 110.50000000000001 2736.0000000000005 6174.5000000000009 2059.0000000000005 156.00000000000003 135.50000000000003
decision_type=2 2 10 10 2 2 8 2 2 2 2 2 2 10 2 8 2 2 2 10 10
left_child=2 15 -1 16 5 6 7 -5 9 -8 11 12 -10 -14 -15 -2 -4 -13 -11 -17 -20
right_child=1 -3 3 4 -6 -7 8 -9 10 18 -12 17 13 14 -16 19 -18 -19 20 -21 -22
leaf_value=-0.046120619636372324 -0.04566064548144011 -0.07990653002443758 0.076257972424172871 -0.113340905804308 0.077957991557025652 0.059137762277779754 -0.038854370153278639 -0.0061886507383360056 -0.085622023301072714 0.053051055900061928 0.041557382442344762 -0.080086499360857433 -0.046610621728697725 0.095354731170725626 -0.015720900370373419 0.034182152906310624 0.015178075743470104 -0.030954890094992023 0.10740839822748559 0.011474325288410255 0.10834358833667104
leaf_weight=3.5918644834309807 2.5164876580238316 2.5256103798747054 3.2391260396689159 2.0316951069980864 2.2600548453629008 3.2684884071350089 2.0478659346699777 1.6985846944153307 2.1236662194132867 1.0941743925213816 3.5972703751176587 3.1492372602224341 2.5222680456936342 3.2536315200850368 2.4209511186927557 2.9083528295159349 5.8822220545262098 4.379641517996788 0.91756300721317519 2.7598297968506813 1.0559435747563837
leaf_count=24 23 15 24 26 18 33 22 15 16 7 26 20 17 33 21 21 39 29 23 20 19
internal_value=0 -0.0173325 0.00464137 0.00869835 0.00152521 -0.00362191 -0.0103935 -0.0645491 -0.00278816 0.0374226 -0.0123794 -0.0232495 -0.00263625 0.018864 0.0479665 0.00197644 0.0368685 -0.051506 0.0883422 0.0231257 0.107909
internal_weight=0 10.7103 48.5342 44.9424 35.821 33.561 30.2925 3.73028 26.5622 5.11555 21.4467 17.8494 10.3205 8.19685 5.67458 8.18467 9.12135 7.52888 3.06768 5.66818 1.97351
internal_count=491 79 412 388 325 307 274 41 233 71 162 136 87 71 54 64 63 49 49 41 42
is_linear=0
shrinkage=0.1


Tree=42
num_leaves=18
num_cat=0
split_feature=2 2 2 1 12 4 0 17 0 14 2 2 1 19 2 2 0
split_gain=0.402841 0.618616 1.01315 0.987319 1.22844 0.836875 1.78876 1.08951 0.977357 0.680273 1.3705 1.41109 1.23922 0.804824 0.519024 0.350814 0.25123
threshold=60.500000000000007 84.500000000000014 98.500000000000014 5401.0000000000009 1.0000000180025095e-35 1.0000000180025095e-35 4906.0000000000009 1.0000000180025095e-35 6072.5000000000009 1.0000000180025095e-35 113.50000000000001 153.00000000000003 1.0000000180025095e-35 1.0000000180025095e-35 126.50000000000001 140.50000000000003 3336.5000000000005
decision_type=8 10 10 2 2 8 2 2 2 2 10 8 2 2 10 10 2
left_child=-1 16 -3 4 5 6 -4 9 14 10 -7 13 -13 -12 -9 -16 -2
right_child=1 2 3 -5 -6 7 -8 8 -10 -11 11 12 -14 -15 15 -17 -18
leaf_value=0.034552500739713277 -0.0087005767499792521 0.056726834341657179 -0.11323338449453715 0.054649334289788166 0.054592127253054304 -0.059105025081395007 0.0135921685674777 0.025191146786978189 -0.071950055727816653 0.052853654898685182 0.11052251565604476 -0.03506637529695799 0.038632929314590364 0.022632419480976697 -0.052674090690225911 -0.0021457563615444419 -0.041039685785324437
leaf_weight=3.3080243561416856 4.9399250112473947 3.3140242137014857 2.2572390642017126 2.9967782758176318 3.190805726684629 3.0162402810528937 2.192053809762001 2.8373729530721921 3.5907142348587504 3.1104984367266288 1.9579866556450696 5.7640587836503983 3.7761956918984652 2.226836521178484 2.7550498358905315 2.7412350419908762 4.6762563474476337
leaf_count=30 29 34 30 22 33 27 20 22 22 31 39 34 31 21 17 23 26
internal_value=0 -0.00137186 0.00347648 -0.000684341 -0.0048913 -0.0101307 -0.0507496 -0.00444326 -0.028335 0.00990778 0.00192853 0.0153413 -0.00589493 0.0637543 -0.00954264 -0.0274734 -0.0244268
internal_weight=0 55.3433 45.7271 42.4131 39.4163 36.2255 4.44929 31.7762 11.9244 19.8518 16.7413 13.7251 9.54025 4.18482 8.33366 5.49628 9.61618
internal_count=491 461 406 372 350 317 50 267 84 183 152 125 65 60 62 40 55
is_linear=0
shrinkage=0.1


Tree=43
num_leaves=19
num_cat=0
split_feature=11 2 19 1 1 3 12 1 10 0 5 0 0 19 1 1 2 2
split_gain=0.398252 1.03604 0.832792 0.792235 0.906383 0.886592 1.17132 0.864462 2.37887 2.18735 1.47595 1.7817 2.83485 1.91145 0.778376 0.537661 0.504213 0.353739
threshold=1.0000000180025095e-35 185.50000000000003 1.0000000180025095e-35 2536.0000000000005 3006.5000000000005 270.00000000000006 1.0000000180025095e-35 1.0000000180025095e-35 1.0000000180025095e-35 4300.5000000000009 1.0000000180025095e-35 3274.5000000000005 7291.5000000000009 1.0000000180025095e-35 1847.0000000000002 4317.0000000000009 112.50000000000001 134.50000000000003
decision_type=2 8 2 2 2 10 2 2 2 2 2 2 2 2 2 2 8 10
left_child=3 2 -2 5 -5 -1 7 10 9 14 11 -7 13 -13 -9 -6 -12 -16
right_child=1 -3 -4 4 15 6 -8 8 -10 -11 16 12 -14 -15 17 -17 -18 -19
leaf_value=0.046680563962835986 0.080264310648946527 -0.024769845605486826 -0.0031206957267524002 -0.076565383606948395 0.021013785952243961 -0.10763554444784876 0.060734856275613314 -0.013799190243185403 0.098941963113549011 -0.10924669816015718 -0.0080485906532689836 0.07307374040347886 -0.076081836099036446 -0.035192973232980006 0.094887167394084482 -0.032333012022792713 0.043583863568376451 0.02131612865211957
leaf_weight=4.2900176085531703 3.1694595776498291 3.0723937302827844 1.9253044240176675 2.7426610216498357 3.2864837795495987 2.8504641577601459 2.7873758301138869 3.4098092187195999 2.639498507604003 1.7528081536293028 3.789773426949977 3.5821703448891622 5.0061256811022758 2.9933406822383404 1.3295269031077626 4.4438329748809338 3.7755936644971371 1.2853575916960833
leaf_count=36 37 23 18 19 35 18 29 35 25 10 27 30 31 18 26 30 27 17
internal_value=0 0.0210947 0.0487532 -0.00272409 -0.027176 0.00376041 -0.00147024 -0.00681936 0.0169118 -0.0109273 -0.0180573 -0.0368116 -0.0193804 0.023788 0.0176775 -0.00965304 0.0177192 0.058723
internal_weight=0 8.16716 5.09476 49.9648 10.473 39.4919 35.2018 32.4145 10.417 7.7775 21.9975 14.4321 11.5816 6.57551 6.02469 7.73032 7.56537 2.61488
internal_count=491 78 55 413 84 329 293 264 113 88 151 97 79 48 78 65 54 43
is_linear=0
shrinkage=0.1


Tree=44
num_leaves=21
num_cat=0
split_feature=10 0 15 3 2 2 0 0 7 6 1 0 0 8 1 2 0 8 2 2
split_gain=0.438701 0.965448 1.0799 1.77252 1.22601 1.03727 1.07848 1.17191 1.43804 1.59801 1.21983 1.19825 1.46246 0.974987 0.941046 0.9084 0.784131 0.674161 0.525966 0.407914
threshold=1.0000000180025095e-35 12858.500000000002 1.0000000180025095e-35 420.00000000000006 256.50000000000006 185.50000000000003 1877.5000000000002 6022.5000000000009 1.0000000180025095e-35 1.0000000180025095e-35 1453.5000000000002 4337.5000000000009 3336.5000000000005 1.0000000180025095e-35 2416.5000000000005 118.50000000000001 3590.5000000000005 1.0000000180025095e-35 134.50000000000003 153.00000000000003
decision_type=2 2 2 8 8 8 2 2 2 2 2 2 2 2 2 10 2 2 10 8
left_child=1 2 13 4 5 6 -4 8 9 -8 15 12 -10 -1 17 -11 18 -2 -12 -19
right_child=14 -3 3 -5 -6 -7 7 -9 11 10 16 -13 -14 -15 -16 -17 -18 19 -20 -21
leaf_value=-0.070743494846777319 -0.039431226910659069 0.053810999469144506 -0.058858713232595221 -0.073695801547951342 -0.032900286524285026 0.078047068407839829 -0.082391294071078147 -0.045757795813648937 0.074448949045946428 0.030539721657623406 0.067186085010244673 0.11726784779630975 -0.010873004247924071 -0.00040225860896660334 -0.071111347363176383 -0.057473664426272345 0.12245707907484485 -0.0060699934419421522 -0.017791018244501394 0.050745121945775351
leaf_weight=3.6551246494054785 2.9066362529993039 3.692430790513753 1.8156024627387584 2.4733918197453013 4.7637002840638152 2.9504903834313145 1.8256650036200976 2.3598112277686587 4.5272442363202554 2.2667230255901742 1.6682544383220377 2.3789384551346311 3.6114747934043407 4.2754406109452248 2.5232061967253685 2.4296490177512169 1.332515515387058 2.6537744458764791 1.2928358698263762 2.4124848879873753
leaf_count=24 19 25 13 19 26 28 21 21 37 23 35 17 31 39 15 22 15 26 16 19
internal_value=0 0.00471273 0.000557213 0.00797297 0.0140531 0.0219125 0.0154196 0.0211115 0.0285084 0.00290542 0.0202273 0.0548367 0.0365882 -0.0328219 -0.0178854 -0.0149936 0.0587522 -0.00104087 0.0300844 0.0209846
internal_weight=0 47.3193 43.6269 35.6963 33.2229 28.4592 25.5087 23.6931 21.3333 10.8156 8.98998 10.5177 8.13872 7.93057 10.4961 4.69637 4.29361 7.9729 2.96109 5.06626
internal_count=491 412 387 324 305 279 251 238 217 132 111 85 68 63 79 45 66 64 51 45
is_linear=0
shrinkage=0.1


Tree=45
num_leaves=22
num_cat=0
split_feature=10 0 15 3 2 2 2 7 0 0 7 6 0 0 1 2 1 19 1 2 2
split_gain=0.357874 0.794066 0.873417 1.43671 1.00497 0.89784 0.897755 1.36223 0.871203 0.955126 1.1977 1.30127 1.13026 1.40765 1.01845 1.52177 0.756039 0.737115 0.652915 0.587889 0.0731876
threshold=1.0000000180025095e-35 12858.500000000002 1.0000000180025095e-35 420.00000000000006 256.50000000000006 185.50000000000003 180.50000000000003 1.0000000180025095e-35 1877.5000000000002 6022.5000000000009 1.0000000180025095e-35 1.0000000180025095e-35 3618.5000000000005 2932.0000000000005 1453.5000000000002 124.50000000000001 2416.5000000000005 1.0000000180025095e-35 2502.0000000000005 110.50000000000001 156.00000000000003
decision_type=2 2 2 8 8 8 8 2 2 2 2 2 2 2 2 10 2 2 2 8 10
left_child=1 2 6 4 5 8 7 -1 -4 10 11 -10 13 -12 15 -13 19 18 -16 -2 -21
right_child=16 -3 3 -5 -6 -7 -8 -9 9 -11 12 14 -14 -15 17 -17 -18 -19 -20 20 -22
leaf_value=0.0478414591365997 -0.041494056262939026 0.049216637863679184 -0.052052847246068151 -0.065994330508782506 -0.029597504394960318 0.073529800185710398 -0.074286159549983938 -0.055142633609754715 -0.074246861183426563 -0.040491277805394549 0.067871632639284987 0.039046570323863453 0.087759446192010107 -0.031083352493774093 0.067386421300413876 -0.075141237197755506 -0.063627906837973772 0.10892492139860861 -0.032703477203906088 0.028579011184105836 0.0054441765512991507
leaf_weight=2.5358342025429002 2.4628225900232774 3.6364611499011508 1.8459694273769915 2.485164424404501 4.7656344175338736 2.8252549003809682 2.8518189787864685 2.6027602180838585 1.8234710451215601 2.3979168664664021 3.039211655035615 2.5379437971860099 4.542639285326004 2.7277661636471748 1.44020117726177 2.1607475094497204 2.5371639020740986 1.5557752586901186 1.1904745195060966 2.8138569407165051 2.6601719297468662
leaf_count=28 23 25 13 19 26 28 17 18 21 21 24 26 39 22 30 19 15 21 15 21 20
internal_value=0 0.00433293 0.00056595 0.00731723 0.0128629 0.0200672 -0.0292921 -0.00432123 0.0140881 0.0193022 0.0261239 0.00270155 0.0504527 0.0210662 0.0184934 -0.013464 -0.0161091 0.0543611 0.0220922 -0.000918854 0.0173364
internal_weight=0 46.965 43.3286 35.3382 32.853 28.0874 7.99041 5.13859 25.2621 23.4161 21.0182 10.7086 10.3096 5.76698 8.88514 4.69869 10.474 4.18645 2.63068 7.93685 5.47403
internal_count=491 412 387 324 305 279 63 46 251 238 217 132 85 46 111 45 79 66 45 64 41
is_linear=0
shrinkage=0.1


Tree=46
num_leaves=21
num_cat=0
split_feature=0 2 2 0 0 4 1 0 2 1 0 0 0 2 5 0 1 2 0 0
split_gain=0.358576 0.917766 0.514777 1.26502 1.01388 1.26351 1.03137 1.22966 1.00326 2.25926 3.07037 1.50733 1.13634 0.991148 1.13228 0.972733 0.80151 0.642085 0.573443 0.384738
